的 -0.731082 -0.331007 0.734587 -1.234929 0.022712 0.668227 0.328636 -0.449152 -1.096737 0.438593 -0.649024 -0.188622 -1.402364 0.453296 0.071398 0.343776 0.055505 1.063413 -0.160198 -0.431835 1.322497 -2.210083 -0.970403 -0.758198 -0.718281 -1.565159 -1.126267 0.320076 -1.493022 0.548202 0.280675 -1.230728 -0.334672 -0.436593 -0.651514 -0.528373 0.483518 -0.170031 0.770392 -1.198965 0.486325 -0.210265 0.225089 -0.342114 0.642515 1.390869 -1.362358 -0.352008 -0.593890 -1.227474
了 -0.428712 1.280055 1.226616 0.518662 1.274430 0.413425 0.296809 0.864021 -0.204250 2.464876 -0.315396 0.980225 -0.738451 1.874433 -0.970928 1.226833 1.168379 0.963920 -0.035651 0.213876 0.358290 -0.997621 -1.084451 -0.609794 -0.928880 -0.129372 0.100276 -0.236512 -2.238057 0.111496 -0.917192 -1.708567 -0.317485 -1.264716 1.424481 -1.458790 0.795569 0.701079 0.890615 -1.231973 0.079363 0.984688 0.997751 -0.622882 -0.249189 0.390600 0.102279 -0.033669 -0.169524 -0.221622
在 -0.612705 -0.019175 0.509681 -1.050310 1.108506 -0.313671 -1.462967 -1.588538 0.225253 1.835311 -1.152083 -0.375069 -0.780262 -0.265389 -0.037152 0.142055 -0.468807 0.194600 0.220006 -0.732363 0.812805 0.163169 -0.104687 0.076252 0.828004 -0.855316 -1.303423 -0.878850 -1.563878 1.059240 0.790947 -1.671823 0.655778 -1.151933 -0.042724 -1.896291 -0.075618 -0.213541 -0.241581 -1.010056 0.599510 -0.485178 -0.467059 -0.200408 -0.009973 1.711315 -0.266955 -1.145299 -0.536151 -0.922720
是 -0.339084 0.382346 0.895196 0.048367 0.304811 0.721483 -0.358100 -1.228328 0.129540 0.496077 -0.280500 -0.833130 -0.774696 1.193352 -0.437121 1.783443 -0.416412 0.657944 1.928261 0.376583 0.224282 -1.054869 0.381754 1.312214 -0.325745 -2.162990 -1.670506 1.275430 -1.671899 0.163275 0.964256 0.031082 -0.639094 -0.976005 0.034907 -0.743961 0.972202 -0.322073 0.214440 -0.333534 0.625653 0.262039 0.500347 0.191477 0.070484 0.934486 -0.705705 0.213432 0.758054 -0.073839
他 -1.549314 0.164020 1.383901 -0.600555 1.142576 -1.185044 0.179726 -0.588586 0.478667 1.940645 -0.690382 0.144501 -1.046758 0.652741 -1.063946 0.545972 -0.814922 -0.703145 0.617220 0.138626 0.840829 -1.336498 -0.355203 -0.266307 0.033346 -1.267806 -0.282106 0.396407 -0.849330 -0.090251 -0.996061 -0.637600 0.769749 -0.722494 1.162952 -0.714906 -0.191655 -0.711893 -0.117201 0.145629 -0.239282 0.834559 -0.055337 -0.612366 0.322791 0.473636 -0.880334 -0.365220 -1.078751 -0.365380
我 -0.449466 -0.504887 -0.125544 0.575743 1.530755 -0.589109 0.115774 -0.343362 0.378950 1.903398 1.144912 1.026189 -1.355419 1.391682 0.798203 -0.356505 0.145235 0.589750 1.249641 -0.318751 -0.324047 -0.828640 0.064300 0.138679 0.895376 -1.336731 -0.734204 0.525551 -1.286572 -0.374204 -0.524804 0.275650 0.371559 -0.936983 0.660330 -0.889775 0.700704 -0.321742 0.864920 -0.923169 -0.525472 0.421996 -0.433669 -0.162390 0.270779 1.081870 -1.350557 0.059309 -0.663956 -1.168786
你 -0.836904 -0.649530 -0.225255 0.884967 1.061643 -0.381390 0.198126 0.209864 -0.238456 2.173101 1.137011 0.397828 -1.240655 1.387700 0.079139 1.068106 0.544773 1.556981 0.972880 -0.563983 -0.288655 -0.593045 0.619548 0.376242 0.976958 -1.848516 -0.562531 -0.177485 -1.387504 -0.313974 -0.551821 0.645089 0.003329 -0.322428 0.182361 0.217131 -0.155403 0.034956 0.138453 -1.126401 -0.822854 0.086753 -0.007856 -0.230701 0.085620 1.087712 -0.973804 0.490194 -0.848545 -0.894472
说 -0.886738 -0.224318 0.775537 -0.132779 1.063529 -0.673144 -0.477914 -0.362693 -0.582054 1.462349 0.632388 -0.398918 -2.695366 2.140827 0.057938 0.309410 -0.873984 0.586610 0.776652 -0.821003 -0.200732 0.181834 0.147404 0.282380 -0.260186 -1.194534 -0.019797 -0.081738 -1.850166 -0.080041 -0.696738 0.228254 0.660465 -0.308457 1.240109 -0.703953 0.363893 -0.083384 0.734938 -0.842332 -0.152491 0.172489 0.006536 0.292941 0.388819 0.321566 -0.028986 -0.776295 0.212321 -0.744369
这 -0.272906 1.293587 -0.015190 -1.298977 1.411026 -0.782781 -0.499046 -0.160954 -0.330670 0.424366 -0.156570 -0.677399 0.657137 0.618510 -0.246178 0.932389 -0.262954 1.045109 1.126752 -0.511659 -0.417087 -0.209176 -0.020473 0.128240 0.725785 -2.037039 -2.209663 0.871856 -1.928847 0.420629 -0.404621 -0.496494 0.415775 -0.608765 0.284525 -0.878328 0.956167 0.046082 1.029809 -1.299073 0.612156 -0.050008 0.307578 0.165002 -0.160872 0.601279 -0.156265 0.146219 -0.091252 -0.289024
中 -0.483104 1.094529 0.295232 -0.146283 1.459798 -0.618458 -0.427920 -0.343035 1.047479 0.198902 -0.863964 -0.965757 0.630799 -0.208460 1.272493 -0.083900 -0.703394 0.786943 0.055721 -0.007672 0.791963 0.274617 -0.956448 -0.337547 -0.352982 -1.993999 -1.143019 -1.542424 -1.806808 1.745121 0.275173 -1.444135 0.350429 -0.154429 0.376895 -0.862819 0.254082 -0.998926 0.724265 -0.512513 -0.291500 -0.657796 1.119609 -1.112726 0.507167 1.689158 -0.358925 1.321482 -0.477891 -0.951660
和 0.244632 0.098664 -0.019420 -0.342630 -0.105975 -0.281860 -0.761218 -0.177225 -1.005862 1.380718 0.240417 -0.373566 -0.110566 -0.370158 0.092347 1.868079 -0.110785 -0.783485 -0.660241 -1.218364 1.233254 -0.602227 0.316759 0.307795 -0.323160 -1.791887 -0.955286 -0.155413 -1.262054 0.799235 0.655346 -0.599565 0.180789 -0.985306 1.030338 0.181627 0.234741 -0.039580 -0.127530 -1.408909 -0.949077 -0.945744 1.522595 0.563298 0.973289 1.287515 -0.953225 -0.173000 0.382010 -1.316395
一个 -0.336339 1.160116 1.529988 0.799378 0.131186 -0.660357 -0.239792 -1.053645 0.383657 0.277320 0.413568 -1.123496 -1.386872 1.079463 -0.951731 0.695588 0.119243 0.642986 -0.330775 0.637046 0.332374 -0.340727 0.062742 -0.899527 -1.603664 -1.215678 -1.620466 0.310358 -0.247057 -0.253278 -0.116920 -0.350411 0.288346 -0.087690 -0.138318 -0.650935 1.238610 -1.702762 0.500663 -0.707184 0.501494 0.003623 0.862886 -0.426613 0.334766 0.334200 -0.617770 -0.436629 -0.198741 -1.610178
上 -1.334800 1.259345 0.603818 -1.075396 0.243942 0.253114 -1.870352 -1.499900 -0.063224 1.194968 0.298442 -0.250232 -0.985974 0.330078 0.040530 0.754109 -0.149397 0.541720 -0.189521 0.663566 0.093931 -0.432345 0.498957 0.007781 -0.956983 -0.397439 -0.300686 -0.214254 -0.707121 0.368038 0.621975 -0.990097 -0.158497 -1.485158 0.154244 -1.794667 -0.206530 -1.168063 -0.317518 -1.642685 -1.460887 0.935686 -0.235487 -0.905050 0.377399 1.099552 -1.203300 -2.452225 -0.988947 -0.008760
都 0.129389 0.318271 1.301858 -0.265456 1.567152 1.020846 -0.579279 -0.012715 -0.299101 1.086128 -0.618564 -0.127271 -0.394727 0.988438 -0.975809 0.522689 0.548105 0.449441 0.824787 -0.144045 0.774405 0.036962 1.516711 -0.187894 -0.237034 -1.098645 -0.891697 0.468864 -0.958242 -0.119655 0.664774 -0.069659 0.950476 -0.654625 1.011728 1.154133 0.552253 -0.863929 1.341899 -1.386794 -0.419573 -0.401983 0.563236 -0.392230 1.201337 1.069175 -0.495252 -0.426023 -0.349052 -0.039070
有 -0.223895 -0.144916 0.951928 0.158986 0.007628 0.322872 -0.298323 -0.433571 -0.100764 0.592614 -0.674996 -0.065407 -1.636025 0.407410 -0.970837 1.599010 0.115211 0.169457 1.431573 -0.274598 -0.433110 -0.608087 -0.015513 -0.492475 0.345715 -1.159340 -1.380693 0.575511 -1.103037 0.878987 0.403494 -0.555371 0.549744 0.335947 -0.565457 -0.096301 0.889193 -0.154236 -0.021934 -2.449161 -0.742736 0.679021 -0.184774 0.410700 0.464405 0.617362 0.171346 -0.720912 0.381125 -0.031887
也 -0.540596 0.567904 0.138444 0.066289 0.874063 0.327328 -0.166091 -0.005522 0.617021 0.888779 -0.440340 -0.645934 -0.514577 0.139054 -0.168965 1.187740 0.221538 0.453327 0.836962 -0.484462 -0.189026 -0.727165 0.520172 -0.012960 0.171582 -1.035401 -1.147413 0.015368 -1.314474 -0.268602 -0.375592 -0.332621 0.550682 -0.519337 0.915305 -0.136070 0.818098 -0.054514 0.553920 -0.956462 -0.239050 -0.084837 -0.023766 0.044005 0.465768 1.108755 -0.465927 -0.693630 0.172823 -0.630875
她 -0.917888 -0.715538 0.026533 -0.055668 0.596915 -0.591531 0.455236 -0.081287 0.498778 0.983942 -0.824405 0.429638 -0.782710 0.385855 -1.168022 0.926678 -0.938556 0.180670 0.603419 -0.259694 0.091836 -0.732097 -0.041814 -0.714684 1.048400 -1.753794 -0.796519 -0.422947 -0.552534 -0.684074 -0.157342 -0.916461 -1.254025 -1.285458 0.575016 0.642100 0.471351 -1.435042 0.109808 -0.433351 -0.940205 0.004273 0.558850 0.132340 -0.467366 0.945591 -0.955217 0.610038 -1.314953 -1.256816
但 -0.959036 0.585926 0.102844 0.539523 0.626231 -0.009944 0.051486 -0.044271 0.514591 0.473978 -0.834669 -0.163729 -0.996312 -0.029911 -0.786174 1.267736 -0.421559 -0.232657 0.522418 0.132101 0.076521 -0.661845 0.407004 0.537058 0.044407 -0.965738 -1.006832 -0.038452 -1.102331 0.213536 0.143339 -0.527298 0.591354 -0.430923 0.670391 -0.345644 1.749711 -0.578775 0.516037 -1.188942 0.648478 0.739228 0.494953 -0.516100 -0.328880 0.575399 -0.176530 -0.523481 -0.047093 -0.861790
就 -0.929975 0.213499 -0.329081 0.121619 1.569180 0.302210 -0.510549 0.939451 0.131188 1.661638 0.484382 -0.458325 -0.628118 -0.134954 -0.563298 0.792781 0.531189 0.893604 0.070257 -0.233465 0.088483 -0.318333 0.079555 -0.128160 -0.037118 -0.495409 -1.015068 -0.222923 -1.312752 -0.410961 -0.229979 -0.788767 0.460421 -0.190619 -0.144636 -0.514791 0.854888 -0.319000 0.472288 -0.353488 -0.717594 0.436556 -0.249031 0.097695 0.559292 0.760655 -0.594835 -0.932809 -0.145948 -1.417501
着 -0.370526 -0.334642 1.169723 0.012570 1.511249 -0.315847 0.005861 -0.757353 -0.434704 1.199556 -1.599535 -1.644415 -0.078395 2.017717 -1.056667 -0.092923 -1.296546 0.273863 -0.476713 0.318299 -0.685588 -1.292632 -0.092492 -0.212249 0.248635 -0.381460 -0.665054 -1.336776 -0.577299 -0.106994 -0.388207 -0.203157 0.082478 0.781858 1.447768 -0.975278 -0.525260 0.443634 1.454317 -0.991019 -0.841531 -0.346876 0.877809 0.112195 1.366293 1.031670 -1.107758 -0.957808 -1.304023 0.466226
不 -2.170216 0.283980 -0.221316 0.004743 0.105736 0.989199 0.109719 -0.109029 1.134093 1.265808 0.111132 0.298606 -1.401232 -0.017772 -0.221275 1.035957 -0.482920 0.656740 0.094588 -0.163923 -0.774201 -0.358414 1.293701 0.715734 0.519515 -1.305765 -1.339316 0.240097 -0.678913 0.069226 -0.939223 -0.258613 0.797646 -0.003473 0.659466 0.355383 0.997721 0.901953 0.864332 -0.391020 -0.031486 0.303451 0.343656 -0.477860 0.821729 1.382947 -1.166092 -0.772633 0.303667 -1.082975
对 -0.094140 -0.487637 0.252462 -0.325153 0.149033 0.269728 0.326781 -0.145680 -0.374098 1.323990 0.537769 -0.732534 -0.867444 -0.045717 0.458097 0.638151 -0.711931 -0.180807 0.348532 -0.292097 -0.111022 -1.330082 0.579079 -0.451417 -0.298737 -1.242768 -0.757121 -0.304693 -2.305603 -0.029643 0.030227 0.215118 0.414941 -1.082809 0.889750 -0.372768 0.740709 -0.011047 0.423654 -0.770595 -0.305842 -0.515187 0.517000 0.229608 1.093823 0.735360 -0.105474 -0.577344 0.943583 -0.576899
人 -0.032171 0.498596 1.745345 -0.432238 0.532284 -0.469527 -0.991833 0.096814 0.837671 0.750815 -0.351002 0.124694 -0.729270 0.707322 -0.366351 0.301171 0.036783 -0.382761 1.287962 0.450110 0.540584 -0.851840 1.585519 -0.471066 0.113179 -1.490991 -0.112457 -0.689093 -1.155755 0.309003 -0.304316 -0.561671 0.657792 -0.777391 -0.506307 0.426428 0.668551 -0.014668 1.016136 -1.012747 -1.154265 -0.260667 0.475539 -0.252521 0.722582 0.094069 0.136270 -0.079697 -0.584165 -1.045054
那 -0.872809 0.203656 1.158829 -0.490042 0.293485 -0.332462 -0.036951 -0.512021 -0.734444 0.905007 -0.075153 -0.131654 -0.066960 0.460557 -0.281762 0.324410 -0.648761 0.876683 0.490456 -0.003263 0.009594 0.164793 0.029787 -0.017841 0.306001 -2.205236 -1.287949 1.013761 -1.979404 0.251402 0.100465 -0.822449 -0.364326 0.445394 0.533588 0.489957 0.490546 0.311100 0.132422 -0.541899 -0.782319 -0.019812 -0.041498 0.091267 0.237457 0.251422 -0.064964 0.285612 -1.577010 -0.371094
没有 -0.919972 0.192123 -0.668659 -0.271007 1.143039 -0.246439 0.571975 0.899401 -0.216330 0.868058 -0.177240 -0.674359 -0.971453 0.070714 0.154556 0.802765 -0.744164 -0.750059 1.478097 -0.008458 0.655006 -0.484266 0.202097 -0.760491 -0.074597 -0.902384 -1.201544 0.033274 -1.326724 -0.124584 -0.461486 -0.230587 0.126414 -0.164778 1.022668 0.160316 1.162356 -0.655713 -0.337254 -1.110408 -0.901833 0.037001 -0.267837 -1.471454 1.050627 1.640384 -0.804556 -1.022672 0.500602 0.061305
我们 0.249895 0.098234 0.271974 0.222722 0.993762 -0.197717 -0.721836 -0.215836 -0.086106 1.000902 0.301953 -0.970513 -1.303126 0.014199 0.273447 0.619833 0.484816 0.047250 0.351468 -0.660589 0.142429 -0.917040 0.473737 -0.120870 -0.029267 -1.383145 -1.407299 0.520207 -1.682705 -0.791056 -0.483525 0.401684 0.562118 -0.240335 -0.206488 -0.150696 0.573860 1.236005 0.937471 -0.971112 0.734459 -0.256600 -0.141377 -0.646279 0.179084 0.800831 -0.814043 0.310068 -0.416864 -0.554925
很 -1.048643 0.692945 -0.123417 -0.389177 -0.477832 -0.194576 -0.493306 0.289620 -0.201448 -0.034718 -0.392259 0.665643 -1.364145 0.579110 -1.317229 0.723321 -0.068269 0.135562 0.836632 -0.045194 0.514110 -0.505417 0.496722 0.545510 0.041556 -1.930006 -0.512804 0.310763 -0.291302 1.623673 -0.845633 -0.671475 -0.642710 -0.493907 1.323907 0.172266 1.868294 -0.160069 1.923495 -0.855150 1.299366 0.552093 -0.774982 0.809104 0.736816 0.078929 -0.677257 -1.004473 -0.632976 -1.412133
到 -0.323606 0.210757 -0.459223 -0.161147 0.639396 -0.371139 -2.263880 -1.371585 0.351875 1.529346 -0.640624 -0.759532 -1.973803 0.540168 -0.101801 1.505507 0.892783 -0.399834 -0.141350 0.456376 -0.530485 -1.137405 -0.941349 -1.620989 0.092533 0.060375 0.062207 0.146297 -0.914432 0.610045 -0.011632 -0.666597 0.258717 0.610927 0.992885 0.384974 1.240674 -1.076698 -0.124506 -0.356329 0.271344 -0.404833 0.297300 0.008809 1.006533 1.282172 -0.849851 0.475415 -0.456647 0.282118
他们 0.364875 -0.014930 0.618904 -0.255300 1.135081 0.181943 -0.452231 -0.093282 0.398592 0.676910 -0.599575 -0.317625 -1.154520 0.317784 0.005175 0.611867 -0.064949 -0.586902 0.078335 -0.190436 0.312026 -0.865003 1.145820 0.014512 0.197834 -0.986988 -1.089281 -0.704609 -0.644080 -0.238263 0.118536 -0.966589 0.223471 -0.544926 0.345387 -0.073070 1.124947 -0.261764 0.372172 -0.364399 -0.579706 -0.324575 0.168808 -0.433554 0.303374 0.418590 -0.665559 0.410498 -0.865434 -1.026989
地 -1.343324 -0.269276 -0.147296 -0.601318 0.382935 -0.530801 -0.326870 0.067179 -0.076271 1.038184 -1.480907 -0.768700 -0.011588 0.986855 0.229132 0.336129 -1.150408 -0.869070 -0.419156 -0.082196 -0.490545 0.270754 0.084468 0.202725 -0.358108 -0.589894 -0.116751 -0.349767 -0.835502 0.727146 -0.437074 0.033269 -0.852218 -0.591216 2.288735 0.540621 0.455660 0.224267 1.777961 -1.305396 0.327289 -0.727008 -0.020201 -0.505903 1.380443 -0.884846 -0.630721 -1.113017 -2.146327 -1.247993
汪淼 -0.676505 0.011640 0.471751 -0.811294 0.632784 -0.124729 -0.279657 0.265573 -0.590673 1.492194 -0.078283 -0.717364 -0.681964 1.949975 0.153363 1.100592 -1.410720 -0.375041 0.037787 -0.315487 0.589422 -0.448221 -0.085251 0.241697 -0.028067 -0.774514 -0.130623 0.161116 -0.915556 0.803997 -0.809239 -0.526940 0.363377 0.380409 0.440289 0.122804 0.490274 -1.083336 -0.072615 0.169570 0.102686 0.526603 0.623475 -0.353611 0.312615 0.176202 -0.184099 0.240851 -1.054779 -0.023059
自己 -0.519971 -0.104926 0.319799 -0.361772 0.776737 -0.649467 0.301481 -0.167115 0.811769 1.462160 -0.296049 0.103751 -0.233220 -0.034438 -0.035337 0.275812 -0.531632 -0.235976 0.473790 0.272590 -0.075721 -2.028657 0.013497 0.103291 0.465129 -1.264796 -0.491395 -0.705767 -0.996017 -0.121172 -0.460270 0.174751 0.635822 -0.417179 1.247793 -0.139463 0.262593 -1.037837 0.338054 -0.700754 -0.188673 0.008646 0.518319 -0.960807 0.126955 0.160593 -0.863701 0.809599 -0.553743 -0.739114
什么 -0.354896 0.078618 0.738123 0.206456 0.708089 -0.480278 -0.000933 0.281480 -0.654926 1.642496 0.025408 -0.665696 -0.875907 1.327575 0.108012 1.392747 0.099563 0.255099 0.696432 -0.260290 -0.295900 0.011115 0.366144 0.555997 0.431355 -1.356956 -1.404178 0.953707 -0.424756 0.302348 -0.037817 0.143205 0.856988 0.930453 0.707597 0.205559 0.260369 -0.728026 0.029857 -1.197186 0.011106 0.021725 -0.552772 -0.452233 0.347453 0.324918 -0.886403 -0.785406 -0.156398 -0.120469
这个 -0.768292 0.574907 0.443496 -0.466026 -0.171716 -0.941970 -0.858672 0.161881 0.495581 0.719261 0.886372 -0.031486 -0.961074 0.151313 -0.374676 0.083831 0.025008 0.706088 0.697940 0.070788 0.610602 -0.660167 -0.409972 -0.677713 -0.514288 -1.002287 -0.752698 0.325709 -1.052605 0.004905 -0.507109 0.114980 0.114661 -0.204437 -0.136136 -0.159485 0.627491 -1.320185 0.187276 -0.852253 1.218859 0.795077 0.229216 -0.731929 -0.235505 0.690094 -0.538134 -0.682774 0.247425 -1.028111
它 -1.005742 0.834043 0.008566 0.746514 0.451520 0.536568 -0.580731 -0.214046 -0.494778 0.490468 -0.384108 -0.096489 -0.178223 -0.108500 0.479599 0.444813 -0.886527 0.013411 -0.237911 0.401992 -0.187887 -1.162722 -0.186967 -0.129175 -0.185494 -0.692901 -1.463995 0.625877 -1.280791 -0.234344 -0.047585 -0.202509 0.065265 1.194857 0.532459 -0.397252 1.334708 -0.557983 0.180379 -0.720998 0.149119 0.585945 -0.060599 -0.702066 0.536964 0.144909 0.107347 0.191190 -1.043205 -0.772425
罗辑 -1.150674 -0.387693 0.604023 -0.722603 0.956445 -1.527906 -0.166858 0.267641 0.219815 1.638873 -0.672638 0.297162 -1.058530 0.721078 0.108423 0.916227 -0.367999 -0.183631 -0.202288 -0.075298 0.305472 -0.051822 -0.625356 -0.044827 0.346860 -1.049298 -0.554251 -0.077845 -0.951873 0.047526 -0.197883 -0.913674 0.426446 0.077739 1.594942 -0.353473 0.409542 -0.315368 0.047620 0.298053 -0.182580 -0.346876 -0.532019 -0.445102 -0.291565 -0.232352 -0.465204 -0.245735 -0.599270 -0.856246
三体 0.636137 0.376768 0.765115 0.566232 -0.569814 0.468909 -1.794353 0.451737 -0.730576 0.682368 0.865377 -1.276754 0.236934 0.620178 0.175429 0.279863 -1.585218 0.827042 0.923933 -1.152326 -0.039397 -0.945365 0.865294 -0.996042 0.857530 -0.869196 -0.152953 -0.122895 -0.891639 0.371636 -0.742260 -1.642105 0.319426 -0.291004 0.380072 -0.158524 1.259912 0.120835 0.006823 -0.152060 0.666795 0.485364 0.447262 -1.873487 1.018492 0.959583 -0.264033 0.394271 0.084041 -0.773792
把 -0.500333 0.142152 0.430722 -0.317820 1.055277 -0.059786 -1.493961 -1.000427 -0.350760 0.875605 0.171780 0.089226 -1.054015 0.628885 -0.479898 0.662025 0.578274 -0.133195 -0.181982 0.131199 -0.349866 -0.793536 -0.014957 -0.562237 -0.888014 -0.895697 -0.400882 -0.526981 -1.014502 0.017572 -0.736088 0.345908 -0.288027 0.176741 0.682935 0.252089 -0.731266 -0.447550 0.481541 -0.945329 -0.770735 -0.144701 0.795853 0.010542 0.427458 -0.396046 -0.679811 0.349489 -0.943344 -1.233014
您 -0.038011 -0.803320 0.191539 0.113794 0.039512 -0.079728 -0.552185 0.406448 1.070287 0.857994 0.599773 -0.249199 -1.090312 0.389493 1.196454 0.083082 -0.304220 0.305098 1.401048 0.200889 -0.043182 -1.419340 0.060582 0.467504 0.485279 -1.378033 -0.158924 0.618397 -1.753740 0.255593 -0.584664 0.728066 0.697654 -0.227420 0.238297 -0.325102 1.327987 0.048777 1.014815 -0.515833 -0.391408 0.185180 -0.663805 0.303004 0.188494 0.350541 -0.834290 -0.448152 -0.175480 -0.500152
现在 -0.310186 0.346417 -0.041605 0.162201 0.860952 -0.196931 -0.577891 0.039590 0.491247 0.885788 0.074126 0.103198 -0.865922 0.253843 -0.282947 0.841016 0.388151 0.344350 0.739982 -0.192749 0.115117 -0.495511 0.131565 0.270081 0.412505 -1.171029 -0.671055 0.038018 -1.023419 0.210880 -0.466540 -0.238518 0.486859 -0.380268 0.408287 -0.010409 0.607530 0.568304 0.472288 -0.694114 0.442560 0.092746 -0.100812 -1.126749 0.218773 1.322013 -0.460307 0.175834 -0.906703 0.027252
知道 -0.998675 0.180652 0.532994 0.008300 0.217459 0.135658 -0.428757 -0.470770 0.748245 1.722483 -0.166831 0.255008 -1.478624 0.304456 0.059849 1.154282 -0.080908 0.653776 0.301852 -0.490679 -0.470583 -0.330287 0.539199 0.757218 0.563560 -1.168835 -0.899625 0.381013 -0.802951 -0.381973 -0.395411 -0.183311 0.594286 -0.088432 0.388634 0.121270 0.413456 0.550831 0.071420 -0.509536 0.183483 0.303203 0.056100 -0.435469 0.186302 0.960598 -0.286677 0.460892 -0.287308 -0.514055
像 -1.501570 0.296241 0.289919 -0.211693 0.633857 0.198710 -0.276405 -0.130918 -0.402523 0.605289 -1.009873 0.161656 0.131277 0.253861 -0.910010 -0.221763 -0.833744 0.910975 -0.045355 1.001872 0.592611 -0.665814 0.477356 -0.301679 0.089208 -1.014492 -1.147683 -0.657111 -1.082208 0.603938 -0.000970 -0.582800 0.441527 0.959920 -0.298203 -0.835582 0.626738 -0.577514 0.913026 -0.678373 -1.372264 0.261478 0.407721 1.251729 0.825786 0.386550 -0.378157 -0.249943 -0.436390 -0.991656
被 -1.288464 0.384146 0.746157 0.263781 0.588040 0.350449 -0.862348 -0.451912 -0.278434 1.059085 -0.388004 0.096933 -0.554541 -1.148421 -0.952950 0.196144 -0.275456 0.535221 0.322873 0.300186 -0.063150 -0.768909 -0.083650 -0.366946 -0.704384 0.086632 -0.972129 -0.202748 -1.283099 -0.577647 0.234692 -1.418062 0.058610 -0.224054 0.605848 0.314293 0.654824 -0.021083 0.429913 0.274934 -0.904687 0.090324 0.371987 -0.502468 0.979642 0.043538 0.355122 -0.023063 0.497497 -0.511039
从 -0.352943 0.669249 -0.129970 -0.831407 0.435784 -0.349446 -1.674747 -0.530118 0.414857 0.752208 0.061666 -0.589957 -0.788071 0.547214 0.508937 0.919608 0.244670 -0.183628 0.109890 0.910202 0.104238 -0.447792 -0.582936 -1.043193 -0.486651 -0.685596 -0.386959 -0.282360 -1.262648 0.921003 0.055717 -0.543360 -0.435764 0.358291 0.201295 -0.103591 0.398389 -0.810831 0.070525 -0.264213 -0.736772 0.002800 0.118991 -0.197027 0.139022 0.637067 -0.436191 -0.192259 -0.890760 0.418291
吗 -0.846504 0.338618 0.235648 -0.335843 0.170642 0.041860 -0.556194 0.306628 -0.191669 1.155294 0.118184 0.297050 -1.409068 1.052893 0.768900 1.195542 0.085882 0.083567 1.134643 -0.156869 -0.109541 0.494516 0.587808 0.275999 0.145660 -1.535970 -0.742634 0.702568 -1.578886 0.259983 -0.538088 -0.010766 0.294694 0.493610 0.348314 0.185355 -0.108802 0.298119 -0.164155 -0.661379 -0.358999 0.064210 -0.423101 -0.356631 -0.062189 0.455785 -0.628515 -0.307140 0.449564 -1.258197
与 -0.027324 -0.356977 0.451033 0.960797 0.132591 -0.378181 -0.374136 -0.034276 -0.165187 -0.088463 -0.192470 -0.405588 -0.794728 -0.147094 0.217956 0.970871 -0.549017 -1.333705 -0.559432 0.007291 0.163257 -1.187663 0.487946 -0.906952 0.583574 -1.229280 -0.954706 0.692204 -0.777789 0.200698 0.477979 -0.394553 -0.263143 -0.318545 -0.048012 -0.518382 1.174740 0.265648 -0.347407 -1.337579 -0.092438 0.376577 1.300233 -0.197397 0.783400 0.985234 -0.226565 0.224836 0.070608 -0.899214
后 -0.303038 0.223412 0.495784 0.215653 1.418436 0.342316 -0.554804 0.266635 0.309854 1.658910 0.539389 -0.835186 -0.481132 -0.279906 -0.384175 0.830082 -0.278079 -0.493634 0.093885 -1.065094 0.332333 -0.039109 -1.115619 -0.065176 -0.356293 -0.215106 -0.169918 0.674836 -1.126450 -0.961019 -0.287803 -1.676675 -0.079164 -1.038016 0.175577 -0.421880 0.525561 -0.318790 0.485896 0.207093 -0.167778 0.158657 0.510635 -0.474257 0.642649 0.371029 0.919139 -0.736231 -0.415087 -0.101228
将 0.196234 -0.483233 0.692242 0.392868 0.226995 0.931693 -1.315323 -0.497360 0.656793 1.888583 0.266039 -0.906111 -0.072335 -0.240023 0.044303 -0.194407 -0.807539 -0.356043 0.124750 -0.645702 -0.321910 -1.189348 -0.223978 -0.237870 -0.640290 -0.295507 -0.698426 0.656267 -0.511924 -0.221673 0.706629 -0.657341 -0.109351 0.174075 0.347732 -0.337892 -0.033558 -0.680143 0.856837 -0.700312 0.521787 -0.213535 0.442425 0.032656 1.208966 -0.172686 -0.338810 0.183253 -0.277493 -1.232372
已经 -0.691946 0.677794 0.097992 0.323223 0.884009 0.051726 -0.481529 0.475527 0.345515 1.250181 0.048545 0.436335 -0.927800 -0.021550 -0.451756 0.656963 0.356322 -0.075458 0.279137 0.208616 0.249674 -0.975905 -0.313103 -0.104469 -0.457044 -0.239771 -0.117760 -0.120976 -1.306116 -0.107771 -0.620849 -1.174632 0.059499 -0.611093 0.513436 -0.819529 0.770267 0.784208 0.706021 -0.599063 -0.120489 0.579521 0.496495 -1.275182 0.489714 0.588218 0.081958 -0.146665 -0.097452 0.198507
要 -0.346606 0.258551 0.422031 0.285555 0.747178 0.142867 -0.538042 -0.459244 0.660329 1.071623 0.678532 -0.412427 -1.131654 0.199992 -0.169606 -0.237810 0.611326 0.054667 0.800954 0.378546 0.096640 -1.182608 0.695803 0.895107 0.273760 -0.990783 -0.264805 0.150349 -1.444836 -0.290530 -0.640193 -0.118041 0.076550 -0.128523 -0.438636 -0.021696 0.796086 -0.261151 0.303845 -0.430719 0.568196 0.050433 0.380562 0.023674 -0.446264 0.952281 -0.591465 -0.278642 -0.333429 -0.287815
可能 -0.673349 0.241824 0.066678 0.463745 0.128979 0.999386 -0.472421 -0.260761 0.872399 0.803863 -0.008482 0.067534 -0.863464 -0.982005 -0.091526 0.527458 -0.014291 0.369164 0.611705 -0.464416 -0.818192 -0.681106 0.245747 0.188736 0.354467 -1.270982 -1.025659 0.419421 -0.748494 -0.397578 -0.451171 -0.558496 0.338764 -0.090113 0.132130 -0.245757 0.137084 0.017534 0.856578 -0.877468 -0.227929 0.177920 0.433185 -0.489742 0.857163 0.952850 -0.591186 -0.415406 0.283030 -0.720548
看到 -0.880645 0.372844 0.580045 -0.043551 0.767373 -0.052511 -1.177374 -0.269927 -0.084982 0.436106 -1.085567 -0.487685 -0.732193 0.452670 0.195762 1.134382 -1.004731 -0.064282 0.329577 0.506601 0.747059 -0.016633 -0.628009 0.297579 -0.517479 -0.853885 -0.939232 0.055854 -1.165891 0.713680 0.204463 -0.660466 0.132751 0.424491 -0.123574 -0.358315 0.362068 -0.444434 -0.051822 -0.639474 -1.132550 0.403494 0.091296 -0.899362 -0.111338 0.271447 -0.226298 0.016609 -1.546927 -0.172316
就是 0.017127 0.234769 0.166936 -0.230890 -0.094265 -0.378208 -0.692622 -0.904426 -0.572058 0.266313 0.766767 -0.834706 -0.389882 -0.029158 -0.498724 0.325365 0.185106 1.171583 0.540211 0.469150 -0.362399 -0.812957 0.266810 0.143147 0.243003 -1.332877 -1.188268 -0.201053 -1.481506 0.101366 -0.363803 -0.086258 -0.091041 -0.455392 -0.224020 -0.181272 0.567349 -0.663985 0.504031 -0.425154 0.107008 -0.105316 0.346895 0.047026 -0.399611 0.663512 -0.671063 0.054860 0.065828 -0.917241
世界 -0.344512 0.566565 0.517040 -0.070888 0.153635 0.000150 -0.600437 -0.181130 -0.307510 1.329413 -0.322154 -0.312849 -0.025106 -0.248191 0.049910 -0.467178 -1.226435 0.728259 0.585611 -0.409289 -0.413175 -0.719951 0.784304 -0.608137 0.555677 -1.308989 -0.908185 -0.230223 -0.605008 -0.197062 -0.600926 -1.392117 -0.239982 -0.104267 -0.403230 -0.758830 0.494829 -0.485413 0.366316 -0.834034 0.402563 0.355879 0.640427 -0.843158 0.680032 1.033265 -0.176372 0.722764 0.254126 -0.448147
叶文洁 -0.901147 -0.189587 -0.201244 0.216817 0.458961 -0.669343 -0.065137 0.446877 -0.171507 1.094845 0.290583 -0.167748 -0.818290 1.039396 -0.667726 1.441235 -0.657902 0.073146 0.531684 -0.814302 -0.027401 -0.191967 -0.288347 0.091989 0.288959 -0.533694 -0.383802 0.094116 -0.160076 -0.103402 -0.712270 -0.827192 -1.305273 -1.000025 0.726393 0.829708 0.778943 -0.232448 -0.480457 -0.661654 -0.388806 -0.053890 0.689261 -0.323098 0.373070 0.398335 -0.295247 0.544072 -0.068974 -0.820007
吧 -0.189820 0.037280 0.133809 -0.008382 0.833632 -0.730922 -0.478625 0.220845 0.176494 1.623266 0.535550 -0.329297 -1.261078 1.051658 0.509775 0.868092 1.022783 0.258569 0.745275 -0.215570 -0.382018 0.129565 0.018833 0.368337 0.135500 -0.886194 -0.008513 0.299067 -1.500576 0.330597 -0.638502 0.029332 -0.290036 0.169868 0.460919 0.010350 -0.063846 0.306935 0.251267 -0.413608 0.050961 -0.129464 -0.425936 0.587987 -0.644064 0.311309 -0.458097 -0.505846 -0.190404 -0.649474
又 -0.446765 0.169164 0.805949 -0.163301 0.364627 0.207170 0.657516 0.113977 0.495216 1.882092 0.428848 0.157099 -0.016437 1.231205 -0.028811 0.529470 -0.464316 0.211136 0.191159 -0.544568 -0.338104 0.168596 -0.911921 0.330372 -0.125168 -0.563059 -0.781715 0.136537 -1.466609 0.220935 -0.458533 -1.184188 0.257083 -0.118697 0.536661 -0.109421 0.832611 -0.524988 0.587343 -0.257247 -0.384172 0.482299 0.563573 0.180266 0.231998 -0.745199 0.247050 -0.207615 -0.470658 -0.207012
能 -0.412016 0.175338 0.381285 -0.061196 0.113472 0.341677 -1.199071 0.655892 0.504414 1.081430 -0.253363 -0.732412 -0.246006 -0.565481 0.318293 1.032346 0.407642 0.927748 0.592598 0.184436 0.273896 -0.328578 0.043838 0.403630 -0.291127 -1.084365 -0.482052 -0.050540 -1.176841 -0.179919 -0.215269 0.486149 0.118080 0.305633 0.456312 0.599294 0.370859 -0.691888 0.460056 -1.121735 -0.169849 0.557083 -0.827946 -0.853910 0.153630 -0.094711 -0.554219 -0.124648 -1.604411 -1.220375
太阳 -0.942164 -0.172672 -0.970424 0.421176 1.000173 0.373849 -1.248119 0.412304 -0.770766 0.651703 0.326620 -0.532138 0.023118 -0.076482 -0.351212 0.264087 -0.118975 0.185799 -0.345426 0.449021 -0.307348 0.186895 -0.204932 -0.487279 0.118496 0.184314 -1.542570 1.237145 -1.362722 0.269025 0.148989 -0.515440 -0.537426 0.562879 -0.602316 -0.851234 -0.107286 -0.641805 0.820129 -1.298777 0.322525 -0.118670 1.060934 -0.079450 0.674867 0.015342 -0.564514 -0.048668 -0.273467 0.372971
还 -0.430407 0.315267 0.114705 0.394397 1.191288 0.404256 -0.682163 0.097484 0.768367 0.747254 -0.460010 -0.097098 -1.309708 0.034053 -0.263613 0.516661 0.377835 -0.143153 0.863489 -0.467863 0.241919 0.401668 0.258233 0.427140 -0.010832 -1.182093 -0.097547 0.176871 -0.537095 0.434221 -0.069811 0.227239 0.325625 0.314729 0.367532 0.291122 0.055278 -0.085939 0.615986 -1.295811 0.155022 0.140299 -0.488328 -0.625035 0.357061 1.334136 -0.393378 -0.480342 -1.127411 -0.120105
这样 -0.646029 0.121630 0.312588 0.291534 0.278273 -0.359176 -0.465207 -0.553555 -0.087876 0.977409 -0.067955 -0.857458 -0.441013 0.020752 -0.367135 0.181541 0.298409 0.988023 0.543167 0.229945 -0.084568 -0.478823 0.280997 0.088203 0.178006 -0.971940 -0.748652 -0.417316 -1.273838 -0.561467 -0.154580 0.119129 0.392571 0.108098 0.344105 -0.598420 0.129293 -0.217133 0.298169 -0.440119 0.226248 -0.298520 -0.150547 -0.084306 0.027857 0.471717 -0.862050 -0.921003 0.404208 -1.812460
人类 1.053426 0.540399 0.591490 0.187804 -0.050453 0.598219 -0.624042 -0.864227 0.281668 0.612449 0.482767 -0.563621 0.067298 -0.479420 0.088800 0.549777 0.168260 -0.239888 0.575138 -0.041417 -0.600870 -1.848954 0.675340 -0.554379 -0.366586 -1.234943 -0.724706 -0.619734 -0.535015 -0.351859 -0.231866 0.262447 0.185620 -0.676148 0.158149 -0.583885 0.210162 0.090118 -0.052958 -1.306606 0.479015 0.113259 0.497008 -1.239507 0.397907 0.262548 -0.655296 0.357899 -0.005706 -0.885211
想 -0.258912 -0.245405 0.507494 0.576112 0.706290 -0.767288 0.080022 0.543208 0.336982 1.541240 0.605714 -0.318953 -0.776406 0.345323 0.160065 0.171165 0.454947 0.540436 0.438128 0.229753 -0.145638 -0.929070 0.125166 1.151563 0.318403 -1.113398 -0.243183 0.280560 -1.482170 -0.558739 -0.502483 0.432933 0.436375 -0.320946 0.833451 0.043668 0.570850 -0.526454 0.453135 -0.581178 -0.121155 -0.017778 0.095963 0.077840 -0.646211 0.240477 -0.730683 -0.261546 -0.554121 -1.033466
不是 -1.029914 0.847896 -0.016493 -0.222377 0.296658 -0.245858 -0.682470 -0.145044 0.052271 -0.519840 0.554612 0.472898 -1.086259 -0.038782 0.190321 0.284856 -0.411006 -0.213174 0.398556 0.491583 0.014540 -0.585691 0.953486 0.751117 0.361039 -1.501863 -1.174814 0.926437 -1.356912 0.060784 -0.425484 -0.127657 0.395952 0.314233 0.634467 -0.438358 0.695797 -0.170028 -0.197953 -0.177623 -0.155890 0.174685 0.497959 -0.381371 -0.139404 1.134275 -0.329491 -0.095844 0.060419 -0.622194
可以 -0.018416 0.637675 -0.409274 -0.013365 0.841967 0.724838 -1.003788 0.317786 0.520628 0.482566 -0.831730 -0.505657 -0.235310 -0.305418 1.163628 1.317008 0.585208 0.073593 0.366719 0.315824 -0.018102 -0.248764 0.164059 0.209693 -0.207507 -0.611834 -0.456165 -0.623619 -1.227414 -0.213429 0.352994 0.294440 -0.228189 0.661320 0.277167 -0.395657 0.793857 -0.582992 0.121552 -1.057633 0.097305 0.157889 -0.493257 -0.870722 -0.239930 0.376914 -0.315452 -0.178849 -0.476895 -1.544153
看 -0.696412 0.202825 0.092139 -0.442522 0.325526 -0.429971 -0.662937 0.693607 0.405759 0.742282 0.488794 -0.727171 -0.212537 1.127100 0.063166 0.568450 -0.271427 0.283821 0.132343 0.944464 0.564574 -0.276372 0.073195 0.230513 0.104946 -0.932862 -0.382996 -0.047418 -1.263040 0.420753 -0.904886 -0.411418 -0.616560 0.088963 -0.208675 0.067848 0.756729 -0.228401 0.413574 -0.081702 -1.676209 -0.138451 -0.200312 0.790797 -0.071059 0.700891 -0.416239 -0.820241 -1.289134 -0.072720
过 -0.168514 -0.023473 0.323959 0.582652 0.902507 -0.063774 1.069252 0.988137 -0.268787 0.429870 -0.023144 -0.096259 -0.570819 0.291152 0.606688 0.222203 0.010381 -0.093731 0.439206 -0.437836 0.476553 0.279868 0.058680 -0.533848 0.836821 -0.539020 -0.622782 -0.222203 -2.076747 -0.336151 0.346175 -0.781621 0.675143 0.118863 0.275390 -0.054138 0.715050 -0.893307 -0.377394 -1.366901 -0.952951 -0.129087 0.159329 -1.236809 -0.319958 0.655828 0.041594 -1.101875 -0.296582 -0.274629
时 -0.356121 -0.129198 -0.426327 -0.181735 1.022961 0.580677 -1.121938 0.304120 0.233951 0.510298 0.114004 -0.781517 -0.427492 0.102306 0.092493 0.474568 -0.763886 -0.483902 0.317465 0.019916 0.419342 -0.608974 -0.201988 -0.802964 0.232480 -0.241584 -0.326294 0.344672 -0.913215 -0.055681 0.022627 -1.223698 -0.508498 -0.578003 -0.091976 -0.267999 1.070766 -0.683553 0.687084 0.327386 -0.024741 0.345462 0.086865 -0.317895 0.323534 0.190626 -0.193568 -0.335524 -0.813587 -0.226213
这种 -0.287481 0.347466 -0.610184 0.254032 0.229230 0.920155 0.421540 -0.529464 -0.045093 0.311262 0.596733 0.489952 -0.759521 -1.331568 -0.114771 0.776071 0.449666 -0.029294 0.206402 -0.233595 0.096467 -1.223017 -0.658920 -0.182288 -0.175947 -1.407542 -1.357671 -0.093977 -1.392230 0.321994 -0.104868 0.474718 1.019305 -0.182841 0.231424 -0.029367 0.501487 -0.968428 0.242265 -0.419350 0.393033 -0.015696 0.134368 -0.242530 -0.164160 0.521861 -0.507428 -0.251450 0.052352 -0.411390
你们 -0.119516 0.438494 1.137829 0.239746 0.605039 -0.463590 -0.523291 0.523106 0.190327 1.509164 0.300618 0.602335 -0.745434 -0.211484 0.673221 -0.317621 0.300538 -0.274062 0.826144 -0.026856 -0.112478 -1.115424 1.147570 0.222477 -0.101633 -1.321259 -0.454195 0.537762 -1.252932 -1.110618 -0.501956 0.720557 -0.140756 0.398949 0.090523 0.201170 0.027834 0.657257 0.605616 -0.509769 -0.369254 -0.351311 -0.137218 0.021109 0.654857 0.862386 -0.192021 0.449790 0.146965 -0.869162
文明 0.709905 0.592116 1.045877 0.702604 -0.503403 -0.229172 -0.175883 -0.230533 -0.262855 1.407465 -0.387126 -1.067564 -0.054776 -0.626004 0.907447 -0.199069 -0.469301 -0.189073 0.007046 -0.603695 -0.977964 -0.463882 0.774775 -0.930876 0.455303 -1.248418 -0.226555 -0.217769 -0.422788 -0.235303 -0.378828 -0.702198 -0.882136 0.031591 -0.374215 -0.463047 0.554315 -0.304818 -0.153035 -1.662545 1.454565 -0.075009 1.175480 -1.244251 0.645015 1.058009 0.213863 0.288965 0.415707 -0.626100
地球 0.731140 0.369380 0.742074 0.609012 -0.320255 -0.020411 -1.737371 0.158952 -0.510267 0.589032 0.660034 -0.615954 -0.176918 -0.527481 0.046378 -0.526068 -0.414225 0.049285 0.376253 -0.212167 -0.490610 -1.300448 0.706886 -0.398337 0.355369 -0.452440 -0.433123 0.232883 -0.817458 -0.241947 -0.150139 -1.140858 -0.862450 -0.223151 -0.226716 -0.627808 0.664876 -0.077032 0.049920 -1.077726 0.383908 -0.084492 0.297515 -1.078258 0.799071 0.641982 -0.238205 -0.114214 -0.229354 -0.314342
去 -0.324732 0.008034 0.267669 0.883567 1.248709 -0.366955 -0.787968 0.140135 0.594346 1.721004 0.234771 -0.505967 -0.865943 0.589821 0.291810 0.323162 0.651032 -0.494823 -0.338117 0.633960 0.478721 -0.695142 0.043201 0.664523 0.589903 -0.160797 0.077707 0.134955 -1.086325 -0.704936 -0.691912 -0.607676 -0.482049 0.671446 0.557044 0.193952 0.233373 -0.375526 -0.750506 0.463983 -0.406277 -0.875052 -0.075692 -0.043627 -1.042715 1.460882 -0.870801 -0.200617 -1.462399 -0.807256
来 0.269823 0.022829 0.426495 0.233074 0.642474 -0.418430 -0.277086 -0.665269 0.544945 1.104515 0.817571 -0.415371 -1.099219 0.499806 -0.099895 0.752974 0.350439 -0.776402 -0.046960 0.350600 0.095714 -0.612132 -0.110285 -0.166765 0.077543 -0.619549 -0.516545 -0.062668 -1.414596 -0.209980 -0.549467 0.003433 0.740826 -0.442957 -0.101207 0.837922 0.679174 -0.334068 0.198947 0.221502 -0.348316 -0.283485 0.522739 0.030216 -0.773373 0.381866 -0.536376 -0.291809 -1.145122 0.150719
让 0.143830 0.118517 0.395934 -0.329889 0.789992 -0.626050 -0.367805 0.734013 0.246449 1.184632 -0.057118 0.171048 -0.715358 0.318283 0.157841 0.175233 -0.083290 -0.253481 0.651995 -0.212420 0.243383 -1.265492 0.450500 0.346548 0.157583 -1.123403 -0.249351 -0.272052 -0.846851 -0.337229 -0.521282 -0.047953 0.066376 -0.195979 0.372817 0.262526 0.816837 -0.464871 0.516369 -0.476531 -0.125150 0.036855 -0.221277 0.211491 -0.180551 0.192784 -0.131846 0.402494 -0.787111 -0.678948
用 0.214480 0.621156 0.326033 -0.859084 -0.069297 0.509137 -0.547928 -0.914739 -0.462108 0.661914 0.255095 -0.344038 -0.828829 0.004718 -0.266375 0.630192 -0.268387 -0.642828 0.103826 -0.444969 -0.233357 -0.246151 -0.158063 -0.020779 -0.913019 -1.310926 -0.699347 -0.774543 -1.421362 0.133503 -0.776813 -0.126987 0.430572 0.603155 0.318637 0.453275 -0.337163 -0.152086 0.588118 -0.380472 -0.175331 -0.097042 0.243900 -0.169278 -0.185309 -0.345941 -0.536236 -0.735643 -0.992532 -0.568163
面壁 -0.615945 -0.640706 0.957204 0.317043 -0.348050 -1.077558 -0.499157 0.576021 0.924262 0.582016 0.653931 -0.809036 0.059778 0.707037 0.523290 0.511473 0.155969 1.020294 0.588016 0.553403 0.997270 -1.080713 -0.253337 -0.738536 -0.053310 -1.038754 -0.512056 0.994192 -0.417463 -0.241122 0.568064 -0.037710 0.978674 -0.814873 1.126859 -0.793504 0.502385 0.622861 -0.461089 0.322004 -0.386147 -0.695317 -0.668221 -0.983701 1.521063 -0.131907 -0.480154 0.296321 1.072760 -1.472584
宇宙 -0.351427 0.819705 0.131207 0.323919 -0.864147 0.648571 0.111834 -0.616146 0.300291 1.491534 0.173367 -0.916757 0.662342 0.191750 0.569029 -0.430310 -0.400419 1.287723 0.038794 0.352808 -0.326796 0.187557 -0.311601 0.503820 -0.070420 -0.624006 -0.889767 0.094232 -0.672510 0.841671 -0.845776 0.287403 -0.462876 -0.290294 -0.363285 -0.208512 0.508449 -0.883808 -0.166730 -1.184744 1.266580 0.195740 0.828685 -0.376441 0.370388 0.837829 -0.763266 0.526257 -0.414465 -0.319071
那个 -1.072504 -0.122643 0.787723 0.164823 -0.186395 -0.703018 -0.476820 -0.672647 0.197793 0.826729 -0.244854 -0.087349 -0.689064 0.571510 -0.060597 -0.490199 -0.781762 0.314802 0.441248 0.365764 -0.105230 0.131635 0.240892 -0.682924 0.579096 -0.958329 -0.355835 0.543199 -0.682742 -0.396157 -0.410616 -0.624013 -0.618267 0.465676 -0.326404 -0.249036 0.092770 -1.335708 -0.124500 -0.159998 0.256171 0.029115 0.361782 -0.402867 -0.200529 1.202761 -0.483640 -0.769152 -0.411128 -0.654070
只是 -0.645121 0.412591 -0.314325 0.742466 0.333332 -0.575292 0.464163 -0.221155 -0.191926 0.109614 0.107572 -0.323424 -0.371170 -0.135500 -0.650874 0.331161 -0.216930 0.049494 0.094213 0.361897 -0.309519 -0.673131 0.303327 0.618173 0.197212 -0.928227 -0.630860 0.310204 -0.515027 -0.077842 -0.446558 0.075669 -0.229405 -0.515122 1.411888 -0.301111 1.035966 -0.403451 0.441082 -0.813720 0.490665 -0.152186 0.307762 -0.624900 0.178272 0.881126 -0.730894 -0.398595 -0.425723 -0.304277
向 -0.549463 0.416878 0.517710 0.121582 0.394272 0.450459 -1.164665 -0.073445 0.440137 1.247786 0.056598 -0.741262 -0.482049 0.750184 0.259453 -0.305079 -0.327476 -0.543036 0.175411 0.489591 0.563088 -0.203875 -0.107948 -0.124982 -0.248163 0.254064 -0.456424 0.595334 -0.963493 -0.739198 -1.020732 -0.116171 -1.206268 0.230663 0.133621 -0.370433 -0.301809 -0.700544 -0.672311 -0.097861 0.184737 -0.605484 1.063183 -0.085505 0.283508 1.323923 -0.566915 -0.157968 -0.128552 -0.102598
起来 -0.641308 0.501914 0.054824 -0.396672 0.581406 -0.281167 -0.881587 -0.281911 0.635485 0.934431 -0.113129 -0.379977 0.378044 1.080515 -0.637508 0.046340 -0.012685 -0.099832 -0.217828 0.436758 -0.366094 -0.271054 -0.238717 0.371027 0.095820 -0.159598 -0.069309 -0.574446 -0.377841 0.345559 -0.812946 -0.640595 0.048509 -0.248983 1.208636 -0.350110 0.779679 -0.649690 1.111143 -0.117180 -0.336941 0.018423 0.416597 0.356330 0.495998 -0.751152 -0.801604 -0.841074 -1.173377 -0.578600
走 -0.236429 0.373871 0.170293 -0.214453 1.447321 0.057266 -0.386264 -0.005140 0.595661 1.688050 -0.620787 -1.057979 -1.067890 1.307932 0.251025 0.552621 0.667534 -0.314559 0.103993 -0.061800 0.144707 -0.467858 0.253559 -0.261092 -0.127749 0.289209 0.430242 -0.424351 -0.508499 -0.331484 -0.517228 -0.966252 -0.233169 0.275824 0.617017 0.149306 0.771957 -0.312604 -0.214873 1.117423 -0.080469 -0.618658 -0.361560 0.963889 -0.030672 0.997049 -0.404369 -0.233050 -0.259587 -0.553484
太空 0.603861 0.502960 0.118569 0.947015 0.736658 0.885797 -1.390519 -0.570473 0.718266 -0.304775 0.858236 0.375917 -0.497803 -0.068400 0.710167 -0.393890 -0.350506 -0.591587 0.093328 -0.004168 0.770929 -0.830068 -0.144663 0.837599 -0.483987 -0.798223 -0.004002 -0.181708 -0.739039 1.545198 0.536442 -0.287895 0.218750 -0.233654 -0.091613 -1.318435 0.075397 0.654966 0.110013 -0.638017 0.032408 -0.207650 0.604635 -0.523119 0.375454 1.488309 -0.311753 0.323529 -0.827225 -0.294561
为 -0.259728 -0.009339 0.405085 0.021305 -0.341291 0.692813 -1.036238 -0.595220 0.453310 0.773604 1.058902 -0.464171 -0.093599 -0.305943 -0.425901 0.431115 0.351001 -0.042467 0.703064 0.261584 0.073191 -0.786187 0.575843 0.452785 0.051479 -0.795303 -0.636933 0.294736 -0.915774 0.032494 0.211099 0.584372 -0.190762 -0.854232 0.112896 0.236372 -0.356367 -0.666508 -0.125892 -0.504895 0.482756 -0.270452 1.113745 -0.208375 -0.002956 -0.019317 -0.765128 -0.088990 0.166488 -0.763157
者 -0.581539 -0.465403 0.936155 0.258999 -0.314165 -0.978437 -0.700773 0.475585 0.824816 0.418929 0.246622 -0.652801 0.069551 0.843303 0.350653 0.672136 -0.081051 0.845646 0.841724 0.487044 1.115834 -1.022873 -0.278788 -0.718479 0.138309 -0.955592 -0.296895 0.557619 -0.208134 0.178961 0.337912 -0.185762 0.637943 -0.812856 1.210022 -0.339861 0.351092 0.525707 -0.465998 0.508653 -0.489700 -0.518413 -0.569140 -0.718078 1.461059 0.002120 -0.675216 0.327337 0.810607 -1.676549
会 -0.284058 -0.501469 -0.338109 0.199725 1.262348 0.894534 -1.150202 0.462726 -0.049411 1.136777 0.035285 0.109167 -0.700450 -0.667071 -0.260250 0.780483 0.229408 0.704263 0.624811 -0.687155 -0.564013 -0.395739 0.263251 0.020275 0.595188 -0.383184 -0.735388 -0.170653 -0.823382 -0.662957 0.126717 -0.589270 0.935465 0.184483 -0.047504 0.097091 0.597491 -0.916237 0.741537 -0.532295 -0.732104 0.722912 -0.198916 -0.402789 0.476182 -0.462906 -0.001493 0.185906 0.200689 -0.614252
更 -0.334667 1.135903 -0.455688 0.269268 -0.292470 -0.125791 0.679123 -0.231605 0.809870 0.771412 -0.212304 -0.350331 -1.106897 -0.167476 0.082285 -0.292787 0.451502 -0.001842 0.034819 0.103750 -0.350530 -0.497698 0.379974 0.367008 -0.576573 -1.490031 0.251565 -0.268255 0.187639 0.564490 -0.088589 0.018606 -0.537753 -0.133514 -0.248040 -0.139271 1.229329 -0.326835 0.857046 -1.656117 0.252125 0.022696 -0.232501 0.730917 0.358943 0.942251 -0.674108 -0.721698 -0.652338 -0.414999
出现 -0.696041 0.242376 0.242481 0.222782 0.729854 0.414503 -0.723725 0.108695 0.229118 0.404364 -0.048283 0.083073 -0.289319 0.352891 0.378583 0.737251 -0.707456 0.053330 0.484175 -0.619116 0.484034 -0.114514 -0.527942 -0.367073 0.182400 -0.561477 -0.884427 -0.348893 -0.544750 0.266764 0.235653 -1.501013 0.199710 -0.384521 -0.953870 -1.002018 0.381181 -0.512524 0.195918 -0.711051 -0.740322 0.794830 0.472146 -0.872904 0.699568 0.133178 0.124944 -0.102624 -0.046524 -0.129260
大 -0.528878 1.388268 0.244159 -0.514785 -0.304285 0.289903 0.018545 -1.108285 0.245825 1.307025 -0.185509 -1.535877 -0.580850 0.811779 -0.382213 0.276270 -0.218839 0.570132 0.356182 0.342025 -0.218252 0.548336 0.104564 -1.186798 -0.552763 -0.289121 -0.513337 -0.675038 -1.118803 0.917309 -0.054610 -0.930151 0.432164 0.421211 -1.072230 0.304262 1.304644 0.348769 -0.013427 -0.508505 0.064189 0.277880 0.244670 0.215329 0.485010 0.154002 -0.155380 -0.510358 -0.079391 0.793027
这里 -0.301929 -0.185826 -0.090347 0.183272 0.568604 -0.572595 -0.512763 0.106457 0.808754 0.257844 -0.478362 0.113554 -0.879557 0.275221 -0.199394 0.885209 0.265073 -0.190043 0.432841 0.545823 0.165337 -0.469588 0.010518 -0.513500 0.834295 -0.896311 -0.524879 0.069746 -0.734281 0.172888 -0.192214 -0.292649 0.094526 0.212266 0.009482 0.116939 1.064027 -0.510218 -0.219377 -0.075525 -0.300982 -0.024789 -0.162854 -0.008979 -0.505826 0.649447 -0.178571 -0.089951 -0.533982 -0.419081
最 -0.468528 0.963308 0.315688 0.264390 -0.618311 -0.275337 0.724957 -0.944792 0.146840 -0.537371 0.129014 -0.416096 -0.480095 0.090660 -0.081549 -0.214655 -0.207672 1.011768 0.394132 0.449037 -0.210067 -0.554780 0.688406 0.390222 -0.603073 -1.854392 -0.624162 0.357056 0.091164 0.631535 0.789100 -0.443435 -0.812994 -0.989858 -0.102949 -0.412711 1.057920 0.327855 0.700491 -0.782563 0.207336 -0.333528 -0.506792 0.296752 0.245720 0.460198 -0.913991 -0.218876 -0.730043 -0.862960
下 -0.659837 0.486739 -0.121252 -0.110940 1.153119 1.004155 -0.252018 -0.530983 -0.202176 1.236580 -0.417656 -0.418009 -0.297293 0.292624 -0.179761 -0.018235 0.292907 0.238428 -0.787470 0.130715 0.879685 -0.836405 -0.450332 -0.305136 -0.086765 0.320283 -1.292605 -0.087305 -0.970026 0.314414 0.043828 -0.906379 0.584549 0.525077 0.261129 -1.157034 -0.118716 -0.248829 -0.344827 0.512729 0.737352 -0.466491 -0.397520 0.621116 0.083854 0.528131 -0.706709 -0.291777 -0.201292 -0.324589
最后 -0.413352 -0.064880 0.693115 -0.337092 1.137879 -0.331679 -0.437668 -0.278147 0.751067 0.861484 -0.195127 -0.870514 0.110777 0.345686 -0.367551 0.139560 0.602218 0.656529 0.783328 0.184147 0.054011 -0.475176 -0.064406 -0.942004 0.025516 -0.438422 -0.084635 0.194661 -0.465491 -0.383351 0.079410 -0.749197 -0.213073 -0.635369 0.425633 -0.494577 0.052997 -0.171258 0.803120 -0.272830 0.115197 0.317096 -0.309682 -0.852840 0.528941 -0.278489 -0.324694 0.033582 0.119312 -0.540149
呢 -0.616766 0.006778 0.137522 0.591142 0.297583 0.336564 -0.582788 0.056129 -0.356742 1.007733 0.554386 -0.305107 -1.466847 0.450757 0.233033 0.751189 -0.095633 0.893207 0.469466 -0.581311 -0.502535 0.104800 0.136397 1.289073 0.261063 -1.048237 -0.796775 0.270935 -0.931954 -0.080564 -0.111488 0.236265 0.732194 0.560773 0.565222 0.458257 0.283568 -0.042555 -0.099856 -0.579998 -0.222939 -0.163691 -0.376009 -0.281095 0.006748 0.239598 -0.658623 -0.194009 -0.146587 -0.422369
好 -0.045957 0.231435 -0.022011 -0.786040 0.413966 -0.329730 -0.292649 0.550514 0.016150 1.652694 0.217099 0.067291 -0.869050 0.876920 -0.403663 0.328126 1.011769 0.114171 0.827880 -0.255242 -0.030984 -0.067912 0.509703 -0.063915 0.000414 -0.699148 0.104925 0.101452 -1.025404 -0.096604 -0.917503 -0.478293 -0.767211 -0.004446 0.406887 0.276900 0.422666 0.289659 0.534424 -0.355869 0.123025 -0.047926 -1.060800 1.007946 -0.152557 0.401487 0.166832 -0.647873 -0.737112 -0.800539
如果 -0.310573 0.443581 0.015783 0.550252 -0.083620 0.828587 -0.855316 -0.140653 0.186501 0.384522 0.286722 0.190989 -0.657543 -0.214845 0.029603 0.487173 0.061517 0.240827 0.947332 -0.133227 -0.412819 0.028482 0.600536 -0.050918 0.198181 -0.849004 -0.446310 -0.010763 -1.316458 -0.298340 -0.973098 -0.024679 0.312760 0.414597 0.412081 -0.137424 0.237033 -0.113139 0.232731 -0.563715 -0.057632 0.256977 0.115274 -0.636452 0.042632 0.391698 -0.360698 -0.537460 0.120460 -1.327416
做 -0.209992 0.140604 0.478857 0.453981 0.694290 -0.071666 -0.210013 0.281554 0.025988 1.290867 -0.008306 -1.130883 -0.618598 0.226750 -0.224917 -0.091301 0.860812 0.634268 0.523590 0.099618 0.518217 -0.573454 0.317538 0.701083 0.242075 -0.651298 -0.170269 -0.476687 -0.961906 -0.373494 -0.206298 0.549426 0.803573 0.479049 1.078944 0.467717 0.375461 -0.427295 -0.015087 -0.691924 0.395336 -0.540572 -0.332613 -0.551299 -0.505778 0.713304 -0.884371 -0.646158 -0.026255 -1.047426
研究 -0.334071 -0.052913 -0.176848 0.487269 -0.255451 0.469884 0.060338 0.026830 0.296684 -0.298139 0.982807 -0.758092 -0.996759 -0.275729 -0.235298 0.067331 0.366267 -0.291433 -0.097697 -0.435388 0.597624 0.630368 -0.861658 0.149574 -0.432848 -0.672927 -0.169344 0.534805 -1.191105 0.801373 -0.005037 0.786199 0.574687 -0.467631 0.232191 0.398746 -0.401122 -0.125139 0.066733 -1.639266 0.785170 0.047326 1.523990 -0.524972 0.025802 1.375276 -0.528151 -0.696632 0.626231 -0.848780
而 -0.640567 0.386647 -0.126739 0.185207 0.059682 -0.059136 0.217784 -0.252958 0.078381 -0.136268 0.371048 0.224043 -0.310684 -0.818725 -0.491198 0.314804 -0.264712 -0.203497 -0.274500 0.090918 0.234206 -1.144232 0.210129 0.398120 0.335175 -1.019121 -0.766627 0.122636 -0.773804 0.278885 -0.167339 -0.569439 0.227916 -0.298154 0.623956 -0.178064 0.590388 -0.423349 0.079355 -0.029655 0.124118 -0.223201 0.632559 -0.415220 0.237268 0.806608 -0.489375 -0.070262 -0.362938 -0.187481
使 0.181539 0.135089 0.278769 -0.699233 0.179562 0.233843 -0.669640 -0.185588 -0.135772 0.802946 -0.394913 -0.331217 0.275503 -0.806891 -0.079593 0.275572 -0.430918 -0.231689 -0.292534 0.203093 -0.146316 -1.481874 0.172548 -0.471329 -0.398239 -0.480612 -0.364000 -0.871268 -0.583670 -0.020943 -0.137947 -0.224747 0.504113 -0.341251 0.717572 -0.383063 0.495774 -1.169111 0.646237 -1.022494 0.019936 0.257567 0.243998 -0.825359 0.405608 -0.403207 -0.124514 -0.026131 -0.111184 -0.954441
开始 -0.290414 -0.164625 0.172701 -0.631134 0.719591 -0.230937 -0.457997 0.137491 0.702942 0.960256 0.762361 -0.846991 -0.268923 0.134834 -0.007362 0.454397 -0.323153 -0.415951 -0.173533 -0.428205 0.651702 -0.239501 -0.910103 -0.471152 -0.615176 -0.253112 -0.400695 -0.115326 -0.820850 0.116111 0.067016 -0.719331 0.454877 -0.792698 -0.062959 -0.222680 0.842862 -0.071763 0.726427 -0.160979 0.408898 0.439551 0.369196 -0.979216 0.559917 -0.318531 0.227290 -0.303905 -0.450570 0.086630
进行 -0.518811 0.297484 -0.094889 0.461042 -0.049341 0.380106 -0.655538 -0.547693 0.921182 -0.363314 -0.007697 -1.154277 -0.380887 -1.104120 0.472393 0.184774 0.066947 -0.018934 -0.211056 0.018198 -0.119392 0.187688 -0.405307 -0.041308 -0.561613 -0.240497 -0.645351 0.112463 -1.327244 -0.352394 0.135150 0.097569 0.017264 -0.872560 0.509745 -0.384132 -0.018856 0.608401 0.782780 -0.621055 0.311462 -0.895118 0.500347 -0.724020 0.436159 0.794436 -0.508719 -1.150361 0.011517 -0.711857
看着 -1.374496 -0.213380 0.070549 -1.570165 0.569467 -0.648311 -0.704427 -0.435502 -0.320983 0.844934 -0.656475 0.327592 -0.405347 1.005706 0.252890 0.335004 -1.100327 -0.464873 -0.325035 0.026349 0.165280 0.565336 0.045456 -0.172733 -0.187488 -0.661982 -0.594411 -0.197080 -0.612218 0.608180 -0.299012 -0.732103 -1.000434 -0.085191 0.502091 -0.038605 -0.553454 -0.158404 0.324132 0.215756 -0.680101 -0.339860 0.224770 0.127120 0.684260 -0.107286 -0.295298 0.132603 -1.118050 0.048212
真的 -0.707932 -0.011968 0.041549 0.519864 0.384298 -0.010772 0.134315 0.438057 0.506245 0.448862 0.124399 1.061798 -0.689603 0.245529 0.290850 0.494774 0.076809 0.869940 0.934600 -0.125796 -0.252751 0.257139 0.361364 -0.088924 0.604141 -1.518607 -0.941507 0.281628 -0.871735 -0.240159 -0.393965 -0.055653 0.322202 -0.076962 -0.062087 -0.452539 0.394402 0.099336 0.540411 -0.656661 -0.322433 0.579628 -0.293879 -0.556911 0.036346 0.293880 -0.418648 0.391370 -0.041795 -1.264916
东西 -0.400067 0.398479 0.605870 0.484896 0.533556 -0.115487 0.131426 -0.118040 -0.395527 0.524097 -0.580597 0.100391 -0.480908 0.351900 -0.252981 0.413179 0.169659 0.212566 0.306265 0.658674 -0.039134 -0.475544 0.420494 0.154411 0.040306 -1.275105 -0.658218 0.368854 -0.547865 0.402578 0.429604 0.140314 0.413663 0.684552 0.210610 0.270445 0.782094 -0.869901 0.477021 -1.112631 -0.798607 0.157378 -0.164621 0.285130 0.365235 0.372675 -0.086270 -0.151269 -0.653105 -0.090820
计划 -0.478467 -0.216855 0.829766 -0.045204 -0.251672 -0.755894 -0.086089 0.413029 1.185858 0.191463 0.606631 -0.391916 -0.122528 -0.439421 0.898958 -0.169163 0.147197 0.461034 -0.032075 0.386200 0.905923 -0.765716 -0.448929 -0.324582 -0.207546 -0.920356 -0.644016 0.796544 -1.039869 -0.213363 0.867664 0.119202 0.787517 -0.517090 0.340691 -1.126300 0.533394 0.930050 0.142636 -0.322172 0.318859 -0.316604 -0.074837 -0.934869 1.186071 0.236460 -0.025807 -0.287811 0.885826 -1.193971
这些 -0.035108 -0.042849 0.911236 0.203817 0.302977 -0.250495 -0.150568 0.317083 0.227366 0.495551 0.125109 -0.317013 -0.535575 -0.105165 0.288138 0.017324 0.370438 -0.085419 0.230521 0.123945 0.404770 -0.072825 0.602379 -0.488225 -0.264157 -1.136033 -0.244750 0.344165 -0.558335 -0.153702 0.645169 0.253740 -0.229948 -0.177914 -0.196611 0.378911 0.539884 -0.263992 0.369087 -1.196709 -0.290919 -0.186298 0.104766 -0.199121 0.562359 0.626770 0.516748 0.018436 0.003092 -0.859181
多 -0.090682 1.037237 -0.160312 0.286847 0.348876 -0.007183 0.704220 -0.286330 0.680043 0.964156 0.327104 -0.887304 -1.159992 -0.057238 -0.205455 -0.148492 0.631981 0.672713 0.483095 -0.292691 -0.526656 -0.372530 0.542943 0.237547 -0.040706 -1.265607 0.018196 -0.671901 -0.350319 0.279157 -0.226838 -0.896763 -0.343151 -0.366689 -0.903307 0.354483 1.738210 0.269838 0.626157 -1.068096 -0.319368 0.246011 -0.641794 0.767864 0.041701 0.902272 0.059251 -0.486343 -0.981415 0.166586
雷 -1.115680 -0.759705 -0.169089 0.319041 0.556065 -0.911217 -0.837648 0.222618 0.659523 -0.184789 -0.041536 -0.447608 -0.589591 1.350308 0.337827 0.684104 -0.590724 0.041274 0.510787 0.787072 0.422965 -0.178051 -0.397990 0.303523 0.063993 -0.346020 -0.128797 -0.076186 -0.329163 0.644567 -0.649309 0.569160 -0.232912 -0.593233 0.813469 -0.984948 0.517240 0.396829 0.229708 -0.379777 -1.169828 -0.483829 0.055575 0.259098 0.870308 -0.241895 -0.809450 -0.079165 0.924798 -0.961389
里 -0.104531 0.188188 0.329085 -0.614466 0.942470 0.000467 -0.057755 -0.511933 0.465992 0.845331 -0.781036 -0.138507 -0.065351 0.847417 0.017797 0.417166 0.258286 -0.242213 0.145505 -0.321933 0.532894 0.569087 -0.817854 -0.803503 -0.265427 -0.745139 -0.191219 -0.221919 -0.320261 0.886773 0.186401 -0.727980 -0.236026 0.537682 -0.410694 -0.121349 -0.149146 -1.182936 0.020182 -0.464779 -0.244643 -0.329658 0.396998 0.751730 0.507433 1.392061 -0.023818 -0.012370 -0.594413 -0.349277
时间 0.138950 0.227298 -0.127619 -0.638906 0.519096 0.342075 -0.397038 0.086226 0.875333 0.876338 0.082779 -0.759463 0.467122 0.041216 -0.724647 1.078925 0.876048 -0.093006 0.655524 -0.744704 0.078230 0.485795 -0.437704 -0.728202 -0.021388 -0.236796 -0.389768 0.573533 -0.486655 0.219628 0.369667 -0.770952 -0.381800 -0.684015 0.007653 0.025696 0.458629 -0.494143 0.623786 -0.687591 0.696159 -0.196848 0.207409 -0.187699 0.802156 0.667301 0.011865 -1.228555 -0.367435 -0.434706
发现 -0.717765 -0.326393 -0.366157 -0.267000 0.547262 -0.331208 -0.850211 0.150948 0.135638 0.298025 -0.034200 -0.339114 -0.675893 -0.192026 -0.143949 1.309336 -0.389576 -0.913069 -0.147536 -0.043534 0.207777 -0.069152 -0.561341 0.068889 -0.042478 -0.498099 -0.421817 0.602687 -0.815911 0.396631 -0.258414 -0.235544 -0.146667 -0.685784 0.228844 0.137092 0.695462 -0.541307 0.280021 -0.740440 -0.076915 0.664858 0.973213 -0.536777 0.322838 0.343280 0.121923 0.132424 -0.337944 -0.094386
啊 -0.155511 0.110191 0.345213 0.115877 0.543600 -0.142998 0.092625 0.563261 -0.152321 1.199861 0.164106 -0.166255 -0.061532 1.354952 0.046681 0.009409 0.078402 0.931200 1.191561 -0.524560 -0.122329 0.661347 0.499915 0.345205 0.774834 -1.261037 -0.295167 0.501889 -0.231448 -0.378943 -0.685006 0.366644 0.051603 0.383047 0.310417 0.246025 0.104887 -0.106032 0.464073 0.103216 0.070478 -0.192519 -0.808544 0.445310 0.125617 0.650013 -0.624841 -0.091778 -0.686925 -0.495312
得 -0.427088 1.133878 -0.059465 0.022360 1.081349 0.185619 0.326745 0.072211 0.215309 1.179479 -0.468811 -0.559936 -0.669651 0.183147 -0.809835 -0.514568 0.944208 0.237583 0.453104 0.451095 -0.138663 -0.172516 0.902179 0.620122 -0.205734 -0.640000 0.255649 -0.364380 -0.308783 -0.269256 -0.294575 -0.409630 -0.430854 0.190208 0.474529 0.343772 1.184202 -0.595949 0.791373 -0.340713 0.358414 0.023990 -0.647195 0.676535 0.154040 0.841295 -0.140888 -0.495830 -0.789696 -0.148105
只有 -0.094744 0.556819 0.498400 -0.122593 0.294441 -0.121862 -0.435289 -0.496638 0.067385 -0.317571 -0.684084 -0.387069 -0.166076 -0.248699 -0.266795 0.672795 -0.086385 0.142847 0.346875 0.154063 -0.052829 -0.572660 0.373547 -0.431295 0.057305 -0.919031 -0.797818 -0.119261 -0.489308 -0.088515 0.146299 -0.741048 0.007445 -0.179807 0.016859 -0.312107 0.360767 0.190970 0.082849 -0.533051 -0.598884 0.019895 0.055602 -0.550797 0.349454 0.854900 -0.119323 -0.076168 -0.535198 0.042924
还是 -0.174006 -0.257975 0.140818 0.322276 0.750627 -0.018803 0.270775 -0.036969 0.482644 0.885960 -0.144383 0.047945 -0.799862 0.113420 0.046019 0.382408 0.212419 -0.132753 0.703267 -0.065586 -0.257065 -0.976426 0.385149 0.636059 0.164304 -0.769282 -0.423443 -0.110429 -0.626186 -0.265772 -0.008691 0.557454 0.078295 -0.178039 0.396239 -0.189560 0.623969 -0.573413 0.121478 -0.745054 0.388081 0.240363 -0.478284 -0.278919 -0.456478 -0.206300 -0.306681 -0.084373 -0.224776 -0.474040
信息 -0.046904 0.550347 0.636270 0.298678 -0.321061 0.037726 -0.925168 0.383153 -0.386322 0.940114 -0.408839 0.015726 -1.151970 -0.617603 0.694280 -0.700263 -0.357835 -0.156297 0.246909 -0.677075 -0.112307 -0.049674 0.256756 -0.760371 -0.767564 -0.365567 -0.046724 0.646329 -0.402455 -1.109531 -0.499788 -0.691745 -1.498728 0.132050 -0.108732 0.303841 0.536166 -0.019338 0.169857 -0.487781 0.665589 -0.231021 0.302585 -0.516790 0.937866 1.672739 0.708012 0.175710 0.461933 -0.824321
一种 0.279852 0.411488 0.831919 0.544681 -0.514337 -0.043147 1.092754 -0.732672 -0.045664 -0.153909 -0.216635 0.420493 0.049867 -0.445363 -0.829888 0.489849 -0.061319 0.204563 0.208938 0.175300 -0.507032 -1.152190 -0.137921 0.137494 -0.230742 -1.848786 -1.120432 0.281132 -0.126161 0.447633 0.150848 -0.481030 0.403438 0.288848 0.646195 0.035411 0.646210 -1.155069 0.668300 -0.679184 0.071687 0.412985 0.355917 -0.171014 -0.299194 -0.183632 -0.688488 0.231686 -0.437716 -0.798839
并 -0.905016 0.240045 -0.035184 -0.300785 -0.129654 -0.125706 -0.216928 0.217659 0.357511 0.218189 0.017603 0.327254 -0.696479 -0.565355 0.224102 0.284553 -0.686266 -0.765813 -0.082334 0.084575 0.415632 -0.697797 0.332293 -0.509011 0.148005 -0.633946 -0.361952 0.432564 -0.344174 -0.635628 -0.368780 0.044233 -0.100387 -0.490812 0.957197 -0.062958 0.868302 -0.481306 -0.173033 -0.215298 0.284940 0.257995 0.398458 -0.837681 0.500026 0.720589 -0.114252 -0.192543 0.236355 -0.734471
技术 0.422263 0.723221 -0.568568 -0.501800 -0.173060 0.947057 -0.109002 0.038568 0.954662 -0.142436 0.662051 0.001147 0.318313 -1.120709 -0.253135 0.610035 0.518966 -1.014046 0.869271 -0.901471 0.248550 -0.479398 0.099743 -0.559608 -0.170426 -0.996975 -0.299183 -0.123477 -0.137428 1.056276 0.126584 -0.282317 -0.098915 -1.026433 0.084033 -0.024101 -0.810578 -0.375746 0.426426 -0.827589 0.992339 -0.086404 0.939302 -0.868372 0.574406 0.522845 -1.070467 -0.620509 0.725159 -0.771011
迪亚兹 -1.143179 -0.645543 -0.051707 0.103427 0.714780 -0.984764 -0.865545 0.254767 0.872618 -0.146004 -0.072288 -0.400283 -0.526203 1.404937 0.787758 0.372188 -0.651031 -0.202629 0.469084 1.237509 0.395476 -0.166402 -0.406411 0.212095 -0.160997 -0.141470 0.117913 -0.188775 -0.543724 0.650882 -0.515721 0.830105 -0.065317 -0.401301 0.746486 -1.330822 0.272696 0.454528 0.431627 -0.413717 -1.159920 -0.443990 -0.010470 0.228494 0.750416 -0.613942 -0.633980 -0.327080 0.645215 -0.712619
问 -0.961054 0.008762 0.521143 -0.302247 0.736832 -0.672733 -0.285412 -0.022528 -0.418585 0.932554 -0.130770 -0.218096 -1.662783 1.190062 0.459169 1.055583 -0.678337 -0.230029 0.757408 -0.089514 -0.583019 0.350397 0.133575 0.275921 -0.110990 -0.827256 -0.466682 0.500176 -1.022084 -0.491696 -0.739223 -0.125330 0.650488 0.652559 0.739959 -0.125421 -0.082116 -0.236970 -0.412718 0.266348 -0.371513 0.173075 -0.276073 -0.529459 -0.563259 -0.212462 -0.272287 -0.276515 0.277355 -0.922977
一切 -0.130390 0.095300 0.150141 -0.476611 1.005836 0.243208 0.061372 0.084802 -0.104123 0.516875 -0.718734 0.135416 0.860268 0.037191 -0.980481 0.283541 -0.234986 0.088076 0.414634 -0.235855 0.116215 -0.245259 0.469931 -0.254924 0.653895 -0.844159 -1.014742 0.164658 -0.600124 0.001001 0.169254 -0.281427 0.741918 -0.247253 0.673417 0.020127 0.424358 -0.382521 1.033387 -0.763949 0.007780 0.206514 0.616095 -0.316888 0.676251 0.130236 -0.166914 0.369173 -0.015068 -0.214846
两个 0.530310 0.564695 1.009718 0.317228 0.278529 -0.885385 -0.843280 0.077979 -0.177401 0.166137 0.885757 -1.014538 0.002825 0.228199 -0.702540 0.460047 0.885942 0.149058 -0.074260 -0.066379 -0.046950 0.500884 0.481082 -0.508448 0.022905 -0.648043 -0.569619 0.963888 -0.714414 -0.453053 0.240426 -1.303897 0.061523 -0.155696 -0.570962 -0.320865 0.339159 0.074699 0.459105 -0.427564 -0.503955 -0.482846 0.253164 -0.158820 0.067547 0.154242 0.029044 -0.783388 -0.558552 -0.936580
工作 0.280529 -0.305265 -0.396216 0.059748 0.296340 -0.126820 0.133090 -0.676430 0.224872 0.565358 0.781154 -0.343044 -0.932734 -0.663375 0.040006 0.274042 0.392654 0.382375 0.530361 -0.580895 0.307780 -0.553124 -0.132968 0.336161 -0.051466 -1.031187 -0.356392 -0.572510 -0.896315 0.581033 0.359359 0.037867 0.038321 -1.402619 0.557090 0.291908 0.440646 -0.136216 0.120887 -0.426856 0.042454 -0.727537 -0.627360 -0.228483 0.015047 1.149533 -0.419402 -0.236610 -0.400732 0.218013
一样 -0.780928 -0.081533 0.560448 0.280928 0.469818 -0.371096 -0.570230 0.403107 0.258375 0.494099 -0.426602 0.195269 0.532926 0.188705 -0.241481 0.070806 -0.478623 -0.133004 -0.188910 0.904281 0.491355 -0.161049 0.964196 -0.153320 0.722241 -0.829425 -0.814716 0.596334 -0.197228 -0.017681 0.175241 -0.045007 0.230863 0.672288 -0.071140 -0.242237 0.280787 0.210270 0.440728 -0.097374 -1.040315 -0.054810 0.438562 0.320763 0.991926 0.805520 -0.390780 0.198295 -0.401587 -0.687880
感觉 -0.363798 0.159921 -0.478394 -0.324622 0.597002 -0.353118 -0.111803 -0.400757 -0.017215 0.950717 -0.631812 0.469517 -0.348418 0.053876 -0.420552 0.511692 0.017037 0.361600 0.216900 0.159113 -0.117405 -1.113885 -0.301291 -0.107247 0.743892 -0.789036 -0.727594 -0.554579 -0.644882 0.645923 -0.125178 -0.626968 0.816360 0.354759 0.761186 -0.102258 0.924303 -1.103317 0.187951 -0.216906 -0.109737 0.398217 -0.247577 -0.053329 -0.044623 0.590890 -0.349664 0.397528 -0.556910 -0.122361
没 -0.466825 0.317848 0.238010 0.075855 1.541299 -0.545659 0.581853 0.818274 0.507317 1.089621 0.105300 0.033973 -1.041706 0.204350 -0.298960 0.233093 0.318162 -0.189223 0.882266 0.050885 0.003776 0.359572 0.590933 0.106968 -0.236710 -0.487997 -0.327437 0.253514 -0.636519 -0.694643 -0.587187 0.443351 0.678321 0.244474 0.073120 0.388692 0.626061 -0.248235 0.508816 -0.781824 -0.967959 0.602858 -0.871617 -0.352262 0.034759 0.778084 -0.046425 -0.927121 -0.708897 0.239053
前 -0.341854 -0.483864 0.125921 0.073264 0.411839 -0.148444 -0.831040 -0.608080 0.772516 1.057153 -0.381989 -0.013845 0.250355 0.274402 0.165994 0.578337 -0.412282 0.041559 -0.003153 0.296957 -0.532265 0.377172 -0.144013 -0.539669 1.041605 0.224399 -0.431957 0.160018 -0.836436 -0.053467 0.158071 -1.273691 -0.578624 -0.741094 -0.409742 -0.725135 0.029033 -0.525329 -0.133948 0.936209 -0.420373 0.043983 0.233989 -0.111583 -0.255606 0.215767 -0.208436 0.040837 -1.294107 -0.294450
它们 0.279887 0.409209 -0.069059 -0.029661 0.409311 0.391090 -1.329555 -0.101636 -0.723836 -0.122341 -0.290355 -0.448788 -0.229852 -0.590654 -0.152961 0.806735 -0.136053 -0.494046 -0.462458 -0.229242 -0.280620 -0.427559 0.547338 0.099390 0.169201 -0.460964 -0.992057 -0.380009 -0.430955 -0.213899 -0.106102 -0.323662 0.309046 0.437367 0.212035 0.131304 0.712769 -0.226130 0.663790 -0.845323 -0.092264 0.409815 0.242813 -0.538181 0.164876 -0.244495 -0.231035 -0.108744 -0.922990 -0.556850
存在 -0.900075 0.167028 0.187852 0.506668 -0.542085 0.384302 0.433354 -0.210503 0.296095 0.458825 -0.652617 0.251035 -0.531574 -0.472994 0.133234 0.188786 -1.039769 0.328311 -0.149811 0.207766 -0.630661 -0.405471 0.571248 -0.176831 0.725030 -0.795494 -0.817402 -0.262005 -0.866625 -0.280011 -0.316135 -0.416735 0.582576 0.492763 0.491383 -0.896769 0.624689 0.409593 -0.016365 -0.774152 -0.016229 0.284968 0.665133 -1.058170 0.307599 0.832559 -0.127825 -0.065687 0.358889 -0.537629
那些 -0.311808 0.348532 -0.059260 0.113045 0.555395 0.629078 -0.293740 -0.014169 -0.048126 0.009047 0.337148 0.188574 -0.445316 -0.008849 0.098131 -0.009285 -0.213297 -0.226105 0.112921 -0.105280 0.359833 0.001346 0.740800 -0.122821 -0.015641 -1.378824 -0.493347 0.005401 -0.218841 0.289322 0.116824 0.239684 -0.374235 -0.046152 -0.304009 0.366640 0.080413 -0.646321 0.294283 -0.790318 -0.445815 0.060038 0.550770 0.037422 0.489846 1.238634 -0.345841 0.109962 -0.861992 -0.071580
已 -0.713912 0.275675 0.407789 -0.075459 0.290492 0.398139 -0.361462 -0.280515 0.307557 1.182994 -0.537577 0.424766 0.141157 -0.386298 -0.489304 0.365864 -0.219452 -0.025722 0.112026 0.360288 0.365605 -0.954215 0.039270 -0.620139 -0.066103 -0.032954 -0.519327 0.277402 -0.559591 -0.259107 0.336590 -0.994593 0.021043 -0.338666 0.633028 0.128879 0.840626 -0.246381 0.177216 0.205986 0.058169 0.315810 0.408955 -1.056418 0.815920 0.173601 0.079983 0.492506 -0.023054 0.225226
问题 -0.445385 0.244455 0.272686 -0.395566 0.021334 -0.715568 -0.171980 0.310418 0.208478 0.870016 0.485617 -0.163811 -0.874557 0.036932 -0.142867 0.122094 0.004651 -0.160962 0.833228 -0.097965 0.304918 -0.472376 0.662114 -0.276154 -0.398585 -0.901816 -0.207306 0.259955 -0.424298 -0.196215 -0.568957 0.201015 0.325896 -0.163983 -0.218658 0.258865 0.418072 -0.660265 0.207119 -0.669640 0.185534 0.150811 -0.018192 -0.321897 0.166345 0.432527 -0.448737 -0.536662 0.550243 -0.866125
需要 0.000925 0.426863 0.059283 0.067448 0.375870 0.201207 -0.662795 0.259522 1.083834 0.559463 -0.391977 -0.105334 -0.092972 -0.850905 0.763423 0.294645 0.956994 -0.019549 0.340638 -0.152244 -0.384552 -0.256614 0.187598 -0.028808 0.104287 -1.275073 -0.440135 0.542821 -0.476421 -0.126253 -0.509620 0.385060 0.391366 0.609786 0.103642 -0.014508 -0.252409 0.282006 0.558707 -0.681604 0.571985 -0.384516 0.074083 -0.500262 -0.047098 0.635986 -0.645095 -0.142425 -0.066190 -1.205990
应该 -0.227687 -0.344625 -0.059759 0.411838 0.323870 -0.252016 -0.548691 0.052955 0.573097 0.246541 0.025489 -0.598971 -0.933162 -0.053969 0.484418 0.957902 0.664446 0.506204 0.320940 0.342296 -0.011056 -0.546812 -0.114049 0.209120 0.144153 -0.859644 -0.717897 0.315910 -0.713743 0.066583 0.111270 0.666076 0.294765 -0.016496 -0.017538 -0.055317 0.474945 0.477163 -0.033153 -0.742497 0.059591 -0.222544 -0.565252 -0.147291 0.121917 0.430793 -0.510087 0.060744 -0.298572 -0.458846
很快 -0.557845 0.096896 -0.283353 0.021005 1.445406 0.466308 -0.604912 0.630553 0.250062 0.862278 -0.256943 0.100313 0.030873 -0.065454 -0.766737 1.138072 0.217423 -0.366511 -0.490803 -0.180808 0.186790 -0.456462 -0.686281 0.153087 -0.018535 0.203047 -0.541885 -0.051487 -0.837903 -0.418708 -0.214517 -0.953270 0.354499 0.081198 0.577450 -0.049227 0.744160 -0.968462 0.524895 -0.137966 -0.247014 0.633893 0.772170 -0.229288 0.073938 -0.220533 0.470720 0.041419 -0.585919 -0.287753
然后 -0.010601 -0.227820 1.005227 -0.183221 0.823964 -0.137485 -0.026939 0.047546 0.280465 1.907170 0.304246 -0.610771 -0.337675 0.680702 0.051221 -0.074935 -0.203556 -0.646159 -0.275747 -0.405895 -0.225062 0.049746 -0.709506 0.508084 -0.645645 0.094905 -0.138055 0.132211 -0.826219 -0.574841 -0.409770 -0.666173 -0.864015 0.153067 0.455915 -0.009802 -0.123490 -0.678738 0.426815 0.076023 0.008667 -0.009431 0.269041 0.331439 0.056291 -0.792855 0.186751 -0.430947 -1.081101 -0.430034
个 -0.533746 0.412031 0.361394 0.459456 -0.068360 -0.408465 0.121304 -0.211465 -0.327808 0.084086 0.431066 -0.862050 0.135899 1.048134 -0.762827 0.042903 -0.351885 1.037337 1.053722 0.589388 -0.285796 0.443398 0.719454 0.250881 0.389476 -1.147337 -0.638046 0.328320 -0.440463 0.068417 -0.449125 0.540789 0.221631 0.263361 -0.141575 -0.032519 0.409920 -0.519496 0.402016 -0.366363 0.254720 0.371382 -0.055848 0.106206 0.163791 0.587920 -0.683905 -0.445465 -0.060000 -0.461218
这时 -0.758727 0.273146 0.021534 -0.398310 0.763273 -0.179482 -0.560774 0.025589 0.004255 0.359400 -0.323790 0.150726 -0.802315 0.117297 -0.282640 0.794678 -0.236686 -0.127536 -0.128882 -0.099065 0.009325 -0.122931 -0.410489 -0.027799 -0.342434 -0.094843 -0.648734 0.311619 -0.552737 0.278418 -0.041363 -1.371566 -0.304757 -0.154633 0.252891 -0.766908 0.517811 -0.453647 0.194758 -0.162487 -0.189325 0.572576 0.244885 -0.377985 0.355177 0.030062 0.341866 -0.117015 -0.373446 0.346448
北海 -0.679483 -0.370588 -0.424106 -0.449067 0.920709 -0.775738 -0.568997 -0.483884 -0.137058 -0.202375 0.030706 0.474459 -1.669076 1.101703 -0.205168 0.759974 -0.023475 0.484104 0.363454 -0.113643 0.693489 -0.658168 -1.030277 0.870935 -0.467058 -0.512661 -0.182929 -1.017178 -0.132196 0.767405 0.081594 0.195609 -0.352355 -1.170062 1.073673 -0.004926 -0.150844 0.759207 -0.119709 -0.309807 -0.951943 -0.434269 -0.412921 0.106777 0.254588 0.918570 -0.640891 0.186532 -0.745503 0.495054
以 -0.270560 -0.261061 -0.208505 0.178645 -0.168582 0.862922 -0.903079 -0.480860 0.373282 0.394900 0.560747 -0.357545 0.415495 -0.724043 -0.255183 0.272481 0.141400 -0.378491 -0.139901 0.450601 0.619183 -0.826531 -0.113281 0.190005 0.189147 -0.281606 -0.806063 0.372870 -0.898139 0.102317 0.020261 0.337820 -0.315992 -0.583030 -0.366083 -0.285595 -0.104372 -0.783364 -0.082047 -0.553343 0.913609 0.108332 1.189143 -0.419782 0.196162 0.358801 -0.622426 -0.043789 0.177588 -0.373326
这么 -0.337097 0.718639 -0.245609 0.088072 -0.210474 0.140001 0.476073 0.228759 0.562882 0.818921 -0.069876 -0.682350 -0.748108 0.666299 -0.178853 0.021688 0.314033 0.813217 1.425377 0.015678 -0.321437 0.104684 0.094323 0.121634 0.106065 -0.897120 0.329999 -0.623382 -0.718637 0.069669 -0.831438 0.097237 0.032655 -0.081161 -0.002357 0.529005 1.513844 -0.077339 0.944049 -0.510272 0.240542 0.587646 -0.969235 0.278084 -0.000656 0.092973 -0.576608 -1.139789 -0.625964 -0.471029
出来 -0.908223 0.070048 0.100116 -0.424898 0.909455 0.345086 -0.462490 0.488830 0.592027 0.752802 0.313275 -1.020362 0.065285 0.223895 0.090627 0.201190 0.301378 0.553634 0.075415 0.856620 0.415370 -0.704459 -0.090949 0.440200 -0.448733 -0.310982 -0.068161 -0.158336 -0.662363 -0.263390 -0.194388 -0.165299 -0.099261 -0.215019 0.390112 0.106753 0.500790 -0.820591 0.314125 0.580864 -0.905472 0.035987 -0.370140 -0.306441 0.162914 0.273125 -0.428654 -0.669321 -1.222642 0.044888
当然 -0.189418 0.318969 -0.229650 0.236461 0.465688 0.181512 -0.532401 0.043379 0.453774 0.280114 -0.150735 -0.082833 -0.900632 0.197903 0.653536 0.827518 0.508074 0.139441 0.791296 0.312624 -0.317781 -0.165355 0.468247 0.388288 -0.009367 -0.807564 -0.578671 0.139893 -0.702368 0.444208 0.030850 0.548016 0.452732 0.553914 0.515118 -0.005298 0.385716 -0.088861 0.135276 -0.693178 -0.062547 -0.109586 -0.587711 -0.627700 -0.062520 0.362474 -0.717895 -0.251649 0.020635 -0.702938
才 -0.029871 -0.245299 -0.107973 -0.560824 0.625455 -0.101802 -0.504170 0.388238 0.485884 1.328858 -0.101139 0.198386 -0.813704 0.231681 -0.505104 0.997174 0.330803 -0.198288 0.584748 -0.802411 -0.636709 -0.455605 -0.220704 -0.173525 0.458849 -0.440354 -0.367265 0.519907 -0.222855 -0.674966 -0.968403 -1.094386 -0.390391 -0.607593 0.083410 0.059131 0.777691 -0.507066 0.554886 -0.090878 0.370505 0.889940 -0.345175 -0.360093 0.119399 -0.104984 0.440267 0.004036 -0.946966 -0.084893
只 -0.126409 0.200273 0.292554 0.520399 0.840745 -0.171444 0.677857 -0.037540 0.188907 0.778295 -0.409965 0.784907 -0.311676 -0.651168 -0.087547 -0.020848 0.341112 -0.241603 -0.107446 -0.141400 -0.073858 0.354495 -0.081190 -0.019464 -0.276525 -0.869752 -0.723204 0.692694 -0.912532 -0.711543 0.170154 -0.449440 -0.256934 -0.108871 0.138700 -0.188638 -0.026780 -0.119283 0.564722 -0.188115 -0.675917 -0.505540 0.334758 0.110419 -0.358134 0.518908 0.035418 0.207365 -0.772438 -1.185141
智子 0.239352 1.083234 0.704158 0.094405 -0.108374 0.353778 -1.185546 -0.112664 -0.010248 0.052599 -0.055406 -0.964739 0.536237 -0.741501 0.172892 0.372059 0.186573 1.012880 0.415908 -0.695710 0.277699 -0.567132 0.140246 0.199588 -0.614169 -0.098903 -0.461291 -0.633790 -0.366456 -0.650444 -0.157013 -0.707914 0.112216 -0.097614 0.056322 0.432778 0.674865 0.781738 0.204224 -0.260696 -0.255994 -0.249328 -0.456683 -0.898222 0.748830 0.039275 0.317287 0.060916 0.082986 -1.579746
一直 -0.373510 -0.180178 -0.130011 0.268828 1.140096 -0.592330 -0.301560 -0.244181 0.358445 0.896963 -0.278880 -0.157388 -0.616082 0.060567 -0.423366 0.138880 0.116479 -0.108995 0.540108 0.063763 0.011371 -0.399071 0.026555 -0.393027 0.432358 -0.253997 -0.304728 -0.590783 -0.529512 -0.070001 -0.431531 0.121882 0.519512 0.186733 0.351832 0.017475 0.071805 -0.088655 0.035965 0.127130 -0.062205 -0.031236 0.015254 -0.560737 0.379215 0.818035 -0.499146 0.300041 0.077693 -0.254280
给 0.044570 0.246311 0.564670 -0.026074 0.417368 0.009054 0.017416 0.062556 0.236594 0.755354 0.328389 0.178976 -0.260417 0.541513 -0.328031 0.135440 0.408734 0.019844 0.353969 0.074717 0.199606 -0.595531 0.345929 0.058594 -0.100703 -0.574109 -0.336247 0.024345 -0.364611 -0.540777 -0.542652 0.232030 -0.175327 -0.349488 0.042131 0.184423 -0.095637 -0.259536 0.151158 -0.474740 -0.588707 -0.030688 0.158307 0.235473 -0.166130 0.342588 -0.678396 -0.179904 -0.501494 -0.528459
一次 -0.270785 0.165597 0.528033 0.300039 0.723169 -0.141640 0.521468 0.117864 0.577536 0.740907 0.001842 -0.685031 0.504178 -0.426515 0.268186 -0.374044 0.507457 0.389110 0.223127 -0.107099 0.207513 0.307069 -0.140848 -0.474398 0.168511 -0.157968 -0.751925 0.583138 -0.924271 -0.447189 0.640631 -1.012008 0.096304 -0.965800 0.465574 -0.304292 0.331008 -0.167529 0.474957 -0.196080 -0.469314 -0.466736 -0.385654 -0.520601 0.429850 0.200576 -0.407685 -0.838940 -0.255484 -0.239112
泰勒 -0.441900 -0.214445 0.424709 -0.379045 0.623765 -0.824919 -0.146940 0.287937 0.877625 0.575546 -0.238273 -0.429672 -0.544650 1.315860 0.674176 0.466957 -0.272267 -0.834612 0.446738 0.581401 0.251560 -0.425100 -0.206202 -0.279913 -0.355979 -0.318452 0.490630 0.185995 -0.433751 0.270324 -0.063930 0.029976 0.308906 -0.441581 0.735214 -0.763393 0.432667 0.304849 0.237269 0.157672 -0.679974 -0.066292 -0.383945 0.002446 0.600902 -0.376777 -0.409478 -0.552955 0.296839 -0.496785
站 0.107428 0.280286 0.613916 -0.582451 0.511530 -0.828204 -1.100168 -0.578686 0.438992 1.159859 -0.622098 -0.367685 -0.773757 1.221366 0.093610 0.468438 0.084420 -0.587843 -0.036106 0.285000 -0.243042 -0.410902 0.594406 0.158013 0.165151 0.152902 0.265973 -0.815325 -0.312811 0.100093 -0.213022 -0.848108 -0.356285 -0.495435 0.516403 -0.367622 0.356009 0.266949 -0.065781 0.316463 -0.399094 -0.408476 0.172016 0.687052 -0.352581 0.333001 -0.110333 -0.435248 -0.744689 0.002540
再 -0.488424 0.134844 0.049896 0.039043 0.615961 -0.182285 -0.209498 0.263577 0.299025 0.790172 0.491000 -0.477088 -0.127593 -0.175298 -0.247496 0.221348 0.844266 0.066193 0.073825 0.343012 -0.062107 -0.003484 -0.117471 0.303509 -0.326666 -0.391776 -0.571761 0.759126 -1.186016 -0.909271 -0.537905 -0.035931 -0.536546 -0.138880 0.302805 0.219191 0.071343 -0.563784 0.463334 -0.476418 -0.525366 -0.013927 -0.195322 0.001845 -0.383737 -0.058040 -0.447460 -0.835592 -0.901418 -0.392876
还有 0.146316 0.625717 1.004460 0.394965 -0.154389 -0.342474 0.080631 -0.234573 0.179509 0.092663 -0.490204 -0.170517 -0.817429 0.200227 -0.172850 0.488391 1.033515 0.151641 0.088862 0.321378 0.220092 0.184373 0.760812 0.015493 -0.048825 -1.283852 -0.136995 0.192775 -0.207377 0.533099 0.587193 -0.381421 0.549513 0.468171 -0.244218 0.038338 0.502053 0.107681 -0.121019 -1.199340 -0.712977 -0.393527 -0.227261 0.359089 -0.050130 0.473446 -0.080091 -0.531996 -0.390870 -0.792961
事 0.172546 0.371488 0.284141 -0.045872 0.409915 0.341613 0.342669 0.707582 -0.089422 1.176184 -0.054112 0.212938 -0.163782 0.298643 0.092887 0.398588 0.448217 0.718335 1.120139 -0.898311 0.162053 -0.178132 0.178978 0.219571 0.627936 -1.096152 -0.224046 0.100116 -0.464645 0.038435 -0.287218 -0.180836 0.225430 -0.495769 0.334514 0.483022 0.269015 -0.421590 0.065496 -1.080779 0.434370 0.450257 -0.782909 -0.348739 -0.233532 0.553886 0.053709 -0.153961 -0.354421 -0.295449
出 -0.651895 0.480481 0.584705 -0.526911 0.298293 0.240678 0.159211 1.033539 0.286164 0.826705 0.521038 -1.076600 0.906578 -0.517621 -0.236859 -0.155009 0.458181 0.835647 0.154919 0.698479 -0.089806 -0.117506 -0.201751 0.467163 -0.564815 -0.328897 -0.263792 0.424731 -0.697881 0.012502 -0.170252 -0.052209 0.009110 -0.360681 0.145987 0.285755 -0.237148 -1.120542 0.302537 -0.408591 -0.508137 0.083513 -0.061810 -0.412346 0.140101 -0.009548 -0.374656 -0.963262 -0.787204 0.228192
小 -0.526767 0.277773 0.317394 0.424500 0.673067 -0.367192 -0.290210 -0.169825 -0.106152 0.322997 0.024218 -0.529795 -0.775707 0.559213 -0.836006 -0.215446 0.134816 0.162214 -0.101336 0.187137 -0.293983 0.237645 0.542141 -0.583990 -0.029375 -0.420124 -0.528662 0.232960 -0.236013 -0.085062 0.201205 -0.167565 -0.158120 0.519847 -0.630358 0.000200 0.336983 -0.745115 0.337654 -1.022166 -0.322167 0.009757 0.722847 0.631946 -0.007011 0.030156 -0.010236 -0.069362 -0.357892 -0.396710
怎么 -0.927009 -0.437237 0.024432 0.152748 0.278462 0.434629 -0.363577 0.569191 0.382950 1.228394 0.217741 0.033224 -0.592551 0.289280 -0.211408 0.300319 0.046330 1.422684 0.764120 -0.117158 -0.215906 -0.176818 0.033917 0.714548 0.580590 -0.962306 -0.330824 -0.034823 -0.775198 -0.507664 -0.473231 0.412483 0.481896 0.070946 0.267151 0.208962 0.056995 -0.324848 0.664567 -0.165807 -0.414603 0.163549 -0.361373 0.170904 0.175226 0.143417 -0.588123 -0.262783 -0.383001 -0.692940
一些 -0.212705 0.325673 -0.069436 0.093951 0.087347 -0.321262 0.413907 0.603284 0.337007 0.436027 -0.157935 0.519511 -0.851172 -0.025482 0.060777 0.383826 0.836912 0.055816 -0.037169 -0.087152 0.304477 -0.450879 -0.082315 0.032059 -0.219691 -0.904089 0.070344 0.321058 -0.307338 0.349950 -0.199213 0.337352 -0.086489 -0.210861 0.275068 0.194599 0.929614 -0.415752 0.465559 -1.476273 -0.027865 0.110779 0.067636 0.078949 0.044440 0.545110 -0.177556 -0.226419 -0.143943 -0.570954
比 -0.303913 0.827084 0.013458 0.617958 0.706653 0.199340 0.264176 -0.311536 -0.154230 0.272128 -0.522675 0.012177 -1.224346 -0.143870 0.013268 -0.517761 0.331692 0.050600 -0.086669 0.177086 -0.333277 -0.402770 1.018327 0.355713 0.229935 -1.088308 -0.205795 -0.080239 -0.376190 0.313281 0.359841 -0.257846 -0.177801 0.902782 -0.821055 -0.284552 0.682012 -0.328420 0.386908 -1.367116 0.191180 0.271847 0.246716 0.531839 -0.011448 1.392479 0.231824 -0.114682 -0.796092 0.528541
们 0.123572 0.036471 0.224297 -0.311215 0.624304 -0.529788 -0.748688 0.048994 -0.055918 -0.388584 -0.151012 0.652982 -1.073580 1.019190 -0.131969 0.796434 0.170083 -0.818506 0.257831 -0.599558 0.654499 -0.628632 0.584754 -0.032760 -0.058181 -0.067896 -0.689210 0.178145 -0.114456 -0.715834 0.024961 0.832465 0.324417 -1.202566 0.683013 0.303857 -0.069439 1.033559 0.282163 -0.368865 -0.017405 -0.507556 0.563876 0.004147 0.563783 0.787773 -0.595446 0.321695 0.439587 -0.314281
行星 -0.307819 -0.544778 -0.461541 0.424231 0.347715 -0.520227 -1.375938 -0.158989 -0.666878 -0.450732 0.069521 -0.936604 -0.254897 -0.657592 0.074295 0.287483 -0.217187 0.121543 -0.587753 0.864822 -0.301993 -0.767376 0.032170 -0.708206 0.378920 0.502148 -0.791051 1.160930 -0.895951 0.470219 0.840368 -0.744213 0.261660 -0.171689 0.278775 -1.386510 0.760858 0.642685 0.329084 -0.757862 0.188434 -0.572478 0.327530 -1.161950 1.221330 -0.323411 -0.339923 -0.089851 0.818272 0.532844
一下 -0.345375 0.201372 0.080523 -0.353724 0.532053 -0.869828 0.161793 0.461899 0.558986 1.381568 0.290622 0.242780 -0.332114 0.814720 0.224025 0.371678 0.434522 -0.246141 -0.145651 0.225490 -0.669394 -0.541508 -0.255738 0.128137 -0.168347 -0.229451 0.082938 0.012648 -1.077333 -0.449490 -1.264790 0.319754 -0.230148 -0.085726 0.889409 0.074653 -0.129738 0.366989 0.299100 -0.257506 0.008455 0.024380 0.379421 -0.017009 -0.570020 -0.251912 -0.409529 0.032820 -0.296417 -0.419819
所 -0.180942 0.221953 0.327176 0.113640 -0.023223 -0.008707 -0.100174 0.038775 0.444838 0.278233 -0.421900 -0.092012 0.150192 -1.312717 0.296735 -0.253730 -0.054351 0.163151 0.257230 0.238871 0.250407 -1.225703 -0.363305 -0.254490 -0.278402 -1.167579 -0.467575 -0.082368 -0.896043 -0.190800 -0.129083 0.380435 0.568240 0.055732 0.582313 -0.337422 -0.254832 0.159764 0.614008 -0.111156 0.557584 -0.429166 0.155701 -0.935036 0.089089 0.265327 -0.386704 0.538412 0.275170 -0.862737
可 -0.333628 0.232421 0.133787 0.317580 0.829265 0.414793 0.236301 0.461250 -0.412504 0.338714 0.040563 0.267757 -0.456269 0.338844 -0.113178 0.167317 0.235932 0.314078 0.695683 -0.152387 0.017259 0.579770 0.641493 0.539175 0.211068 -1.037891 -0.625198 0.260740 -0.714063 -0.310748 -0.185239 0.346790 0.378831 0.384739 0.229957 0.287084 0.273488 -0.034270 0.596476 -0.535506 -0.306932 0.111445 -0.478872 -0.355016 0.015954 0.582563 -0.388881 -0.444894 -0.477990 -0.231727
基地 -0.507662 -0.582146 -0.196902 0.747917 0.526846 -0.176481 -0.892013 -0.192249 0.641334 0.405491 0.055217 -0.459771 -0.777239 0.046452 -0.617514 0.862913 0.220953 0.076706 0.523359 -0.515802 0.995385 -0.247398 -0.983602 0.113243 -0.279318 0.300774 0.121814 0.145576 0.234386 -0.006142 0.287955 -0.542502 -1.243237 -1.202558 0.647655 0.120653 0.278910 -0.395233 -0.749928 0.206861 -0.062587 -0.854253 0.220953 0.260684 0.741964 1.531578 -0.216251 -0.028703 0.639334 -1.225917
科学 0.693891 0.245795 -0.095552 -0.099356 0.000396 -0.298096 -0.295167 -0.193248 -1.234372 -0.207571 1.126950 -0.308248 -0.670650 0.008789 0.189855 0.546062 -0.362169 -0.353973 0.194543 -0.806275 -0.310796 -0.858963 0.419514 -0.756098 -0.325419 -0.561938 -0.599980 -0.190385 -0.613787 -1.035242 -0.618287 0.156477 0.425065 -0.835989 0.508520 -0.164259 -0.075965 0.551048 -0.233966 -0.092072 0.240584 -0.132689 0.026435 -0.967805 -0.168404 -0.059692 -0.822559 -0.216577 1.012737 -1.248115
产生 -0.022927 -0.209701 -0.543224 -0.081004 -0.036792 0.536523 0.573397 0.034027 -0.282056 0.294284 -0.103036 -0.223171 -0.012460 -1.534139 0.013824 0.327831 -0.273701 -0.230180 -0.216100 -0.606573 -0.351963 -1.049616 0.012687 -0.632981 -0.240338 -0.695908 -0.801869 -0.263495 -0.413366 -0.116991 0.538679 0.002561 0.479301 -0.174540 0.482366 0.013524 0.331871 -0.800419 0.438764 -1.161055 0.381956 -0.156658 0.222398 -0.917328 0.871111 -0.121025 -0.100463 -0.260997 0.758300 -0.421146
大史 -0.435910 -0.117501 0.398956 -0.365777 0.406230 -0.160325 0.014261 0.171201 -0.351670 1.579355 0.248020 0.126375 -0.603224 1.658268 -0.222294 0.602917 -0.613160 0.309424 0.141901 -0.594729 0.157292 0.007243 0.217392 0.687417 0.097855 -0.441559 -0.032498 -0.377583 -0.507262 -0.188808 -0.863192 -0.360271 0.155067 -0.184755 0.631846 0.189480 -0.243510 0.401697 0.140304 0.329294 -0.816683 0.035880 -0.269778 0.516744 -0.077235 -0.017128 -0.394857 -0.244092 -1.033690 0.044276
当 -0.151322 -0.112663 -0.200402 0.273832 0.804037 0.215459 -1.061601 0.447305 -0.127690 0.183111 0.430786 -0.758606 0.150929 0.236327 0.050250 0.427333 -0.230818 0.024120 -0.058451 -0.196300 0.348524 -0.450456 -0.330904 -0.592823 0.093333 0.159594 -0.541527 0.539561 -0.623619 -0.188776 -0.010381 -0.951758 -0.103061 0.066189 0.054846 -0.050233 0.995849 -0.469433 0.584442 0.234802 -0.229133 0.154141 0.215299 -0.399952 0.546686 -0.205118 -0.154639 -0.095926 -0.364930 -0.348147
所有 0.481915 -0.031866 0.820956 -0.343609 0.178171 0.028732 -0.756162 0.049074 -0.072090 0.062458 -0.043745 -0.465172 0.090905 0.380890 0.285620 -0.062906 0.015710 0.013027 0.188369 -0.131468 0.772141 0.021971 0.173226 -1.080652 -0.403485 -0.468597 -0.220633 0.196022 -0.185722 0.191034 0.478123 -0.070570 0.318311 -0.341301 0.234219 0.045778 0.069867 -0.532723 0.343366 -0.872501 -0.186989 -0.502163 0.542365 -0.677588 1.054362 0.631961 -0.013671 0.057277 0.288956 -0.576515
红岸 -0.606443 -0.044970 -0.267509 1.071403 -0.280289 -0.466007 -1.053914 0.463642 0.123245 0.265035 0.095849 -0.329216 -0.389472 -0.002213 -0.425134 0.735331 -0.113175 1.175901 0.485909 -1.096072 0.688908 0.163891 -1.342216 -0.283955 -0.258305 -0.124979 -0.042261 0.572418 0.308411 -0.042693 0.220061 -0.830133 -0.821660 -0.518635 1.041628 0.443906 0.566324 -0.251342 -0.439687 0.039398 0.893326 -0.509672 0.356204 -0.333376 0.666326 1.211973 -0.033652 0.544431 0.808226 -1.410130
思想 0.578758 -0.000159 -0.161034 -0.398022 0.400413 0.244963 0.076185 -1.045377 -0.760121 -0.105960 0.584103 0.542806 -0.820614 -1.195425 -0.039404 0.110247 0.343089 0.030906 0.355796 -0.411811 -0.163883 -0.922902 0.199048 0.430172 -0.566116 -0.871036 -0.381065 -1.620463 -1.327889 0.567696 0.432857 0.265594 0.713642 -0.900086 0.653697 -0.087540 -0.110249 -0.323808 0.240867 -0.325889 -0.739713 -0.698594 -0.335650 0.105303 -0.181588 0.227158 -0.109703 -0.047184 0.384303 0.204595
所以 -0.129174 0.115082 -0.244501 0.219234 0.193835 0.394062 -0.164837 -0.379089 0.810544 0.082745 0.332044 -0.499577 -0.623274 -0.612322 0.311288 0.189389 0.286575 0.469503 0.417359 -0.099742 -0.031469 -0.759583 -0.122743 -0.288069 -0.121199 -0.471636 -0.588307 -0.147059 -0.893549 -0.218658 -0.197360 0.239672 0.594530 -0.563025 0.116167 -0.215570 0.647366 0.639628 0.501295 -0.249891 0.177063 -0.221114 -0.504115 -0.807901 0.387050 0.881274 -0.476971 -0.693082 -0.061292 0.256276
太 0.106083 0.528701 -0.347355 0.020105 -0.061726 0.373836 0.738048 -0.430253 0.740109 0.134586 1.528406 0.115131 -1.388428 0.026526 -0.214510 0.470821 -0.136767 -0.119149 0.509120 -0.697728 -0.140104 -0.907802 0.330178 0.028812 -0.369768 -1.194060 -0.344622 -0.254371 -0.499400 0.144646 0.068424 -0.003150 0.154832 -1.782681 -0.344314 0.360392 1.487669 0.329873 0.645283 0.403916 0.404638 0.431408 -0.179153 0.407769 0.048171 0.841593 0.097688 -0.074027 -0.454761 1.003021
一 -0.494519 0.269303 0.200226 -0.748959 1.145966 -0.241393 -0.627600 -0.021569 -0.115087 0.668365 0.236115 -0.638225 0.143486 0.325490 -0.788333 -0.133597 -0.154691 0.498927 -0.208417 -0.405223 -0.245805 0.289776 0.409528 -0.164543 0.137325 0.068838 -0.601260 -0.118644 -0.425511 -0.547623 -0.007988 -0.923673 0.482545 0.013524 -0.436967 -0.320036 0.134507 0.007623 0.931452 0.556939 -0.330056 -0.041569 0.260306 0.454229 0.487190 -0.487241 0.232160 -0.149407 -0.284806 -0.327647
同时 -0.235831 0.106893 0.410240 -0.182066 0.059552 0.141844 -0.513718 -0.231580 0.422604 0.221092 -0.153543 -0.642581 0.007022 0.333634 -0.119518 0.147462 -0.302785 0.360574 -0.018378 0.041862 -0.418238 -0.000643 -0.047447 0.009192 -0.160214 -0.234310 -0.105128 -0.815776 -0.619796 0.276995 -0.298053 -0.247980 0.310272 0.065987 0.345084 -0.232228 0.050802 0.105478 0.666754 -0.530942 -0.452096 -0.067544 0.541842 -0.270947 0.327754 -0.109146 0.010781 -0.483693 -0.274330 -0.721473
章 -0.751418 -0.374808 -0.377780 -0.447754 0.720803 -0.717175 -0.514453 -0.240722 -0.181936 -0.398886 -0.071570 0.347862 -1.511661 0.896446 -0.233812 0.839054 -0.171398 0.389975 0.364209 0.118410 0.691609 -0.634436 -0.870848 1.001474 -0.401436 -0.454491 -0.190981 -0.834400 -0.100445 0.799272 0.040291 0.256266 -0.212265 -0.827625 1.088620 -0.003343 -0.202266 0.844188 -0.117791 -0.262075 -0.848028 -0.274494 -0.488274 0.080524 0.313953 0.701053 -0.599686 0.078066 -0.371485 0.661004
由 0.184580 0.339222 0.521319 0.373864 0.215905 -0.321073 -0.589581 -0.312167 -0.361806 0.067508 0.496258 -0.415938 -0.231385 -0.432465 -0.504628 -0.166002 0.487925 0.134549 -0.408845 0.743676 0.000176 -0.532338 0.297190 0.203050 -0.685770 -0.106385 -0.944925 1.351657 -0.725380 -0.104797 0.671947 -0.316996 -0.311486 -0.162372 0.091552 -0.511619 0.631745 -0.280635 0.401775 -0.516975 0.536963 -0.385410 0.702293 0.242717 0.395933 0.121167 -0.034108 0.251134 0.233180 -0.083496
发射 -0.637426 0.188313 -0.229864 0.998780 -0.328307 0.374531 -0.993700 0.493285 0.708385 0.468238 -0.288363 0.155718 0.118404 -1.171430 -0.152585 -0.179187 0.212374 0.116532 -0.131602 -0.242754 -0.017642 0.269864 -0.198540 0.376601 -0.129737 0.105858 -0.440454 1.416386 -0.588847 -0.799995 -0.005207 -0.967539 -1.563420 0.108443 -0.220699 -0.124459 0.069168 -0.473267 0.274790 -0.064845 0.701390 -0.613978 0.788133 0.564046 0.111738 1.300699 0.426728 -0.485796 -0.141115 -0.669093
巨大 -0.463105 0.361452 0.280287 0.321612 -0.143654 0.219057 0.423294 -0.528125 -0.605784 -0.171184 -0.421733 -0.518732 0.120976 -0.333219 -0.773435 -0.142150 -0.730307 0.320704 -0.431174 0.116942 0.159867 -0.774612 -0.381053 -0.295713 -0.481028 -0.533097 -0.949636 -0.189397 -0.385876 0.123605 0.236859 -0.521832 -0.173678 0.458820 0.011565 -0.367494 0.289700 -0.431197 0.504221 -0.769123 0.386546 0.112746 0.868819 -0.286134 0.461945 0.386938 0.083759 0.017116 -0.179361 -0.081835
声音 -0.655682 0.552146 0.346730 -0.359322 0.635533 -0.826220 0.837649 0.249210 -0.489135 0.377015 -1.168073 -0.125838 -0.406137 0.541702 -0.595934 -0.010143 -1.140334 -0.123991 0.253648 0.007446 -0.211734 0.025941 -0.519128 -0.002861 -0.279193 -0.901805 -0.288355 -0.275703 -0.585117 -0.172321 -0.373504 -0.583318 -0.130789 0.379785 0.734623 -0.484773 0.664803 -0.781103 0.631003 -0.349114 0.396919 0.415417 0.413398 -0.081137 -0.381563 -0.219494 0.491424 0.060534 -0.126507 -0.314682
系统 -0.435552 -0.330361 -0.208421 0.546434 -0.188896 -0.268798 -1.714057 -0.180690 -0.032629 0.100117 -0.246881 -0.794509 -0.553096 -0.609737 0.287991 0.473528 0.013751 0.575289 -0.249293 -0.540086 -0.044425 0.077723 -1.152988 -0.008718 -0.502852 0.395756 -0.097086 0.693985 -0.066884 0.045236 0.339651 0.005157 -0.503445 0.139325 0.953975 0.167316 0.308202 -0.043784 -0.175709 -0.448215 1.224259 -0.447793 0.173796 -0.749921 0.879401 0.576647 0.098464 0.153889 0.136128 -0.687251
恒星 -0.471284 -0.120160 -0.134396 0.089089 -0.340424 0.380413 -1.348105 -0.237223 -0.535509 -0.576364 -0.489058 -1.014739 -0.228235 -0.778158 0.672454 -0.203970 -0.108109 0.448158 -0.036584 0.697245 -0.704304 0.243201 0.327234 -0.681902 0.093892 -0.027535 -0.748094 1.217905 -0.946415 0.501870 -0.357006 -0.206414 -0.187490 0.594701 -1.247045 -0.524406 0.269031 0.469309 0.702855 -1.220302 0.122891 0.082943 0.150794 -0.561183 0.914898 -0.102376 -0.324592 -0.155284 0.957397 0.137385
恩斯 -0.116643 -0.231465 0.226285 0.276446 0.610801 -0.447267 -0.442742 -0.017937 -0.360133 0.022813 -0.178046 0.250577 -1.215216 1.407878 0.648591 0.597774 -1.148314 -0.840260 -0.084559 -0.235141 0.906682 -0.073728 -0.665873 0.988534 -0.231562 -0.333576 0.007997 -0.479086 -0.368550 0.628261 0.399693 -0.106462 1.131435 0.016513 1.115755 -0.361710 0.313488 0.141188 -0.012517 0.577019 -0.939785 -0.099697 0.542602 0.159115 -0.293660 -0.216867 -0.283678 0.001867 0.285219 -0.763171
史强 -0.321127 -0.525487 0.353463 -0.530967 0.960669 -1.025598 -0.097561 0.172069 -0.112798 0.954633 -0.000909 -0.408192 -1.134147 1.232768 -0.111990 1.001507 0.072783 -0.840266 -0.237852 -0.409746 0.076043 0.280457 -0.370499 0.300751 -0.399773 -0.332093 -0.092973 0.116025 -0.416480 -0.263093 -0.471374 -0.034229 0.214768 0.179104 0.996337 -0.007082 -0.419847 0.237213 0.037903 0.248185 -0.335664 -0.269428 -0.158272 0.516475 -0.313482 -0.485402 -0.163288 -0.569244 -0.388954 -0.498243
孩子 -0.164150 0.190562 0.244893 -0.048038 0.754875 -0.421013 0.042864 -0.308270 0.175571 0.130938 -0.435840 0.623006 -0.934254 0.921115 -0.328861 0.836529 0.222520 -0.640311 -0.138981 -0.330856 0.021869 -0.293927 0.772828 0.057065 0.230059 -0.677633 -0.888408 -0.221189 -0.266823 -0.355993 -0.055021 0.175859 0.308355 -0.298451 0.546409 0.371956 -0.220607 0.375193 0.355617 -0.333990 -0.891539 -0.536704 0.634609 0.697275 -0.243319 0.347035 -0.827701 0.290292 -0.492447 -0.819132
破壁 -0.127112 -0.270141 0.791921 -0.370702 0.234786 -0.541950 -0.950844 0.455543 0.837548 0.186850 -0.032860 0.512410 -0.253073 0.716178 0.631869 0.042503 -0.060605 -0.604843 0.617888 0.249383 0.447194 -0.554517 0.725557 -0.153671 -0.315463 -0.730179 0.227722 -0.376997 -0.525344 0.281118 -0.370346 0.236411 0.474882 -0.117564 -0.456485 -0.214830 -0.209888 1.197612 0.832066 -0.084971 -1.156039 -0.261017 -0.069808 0.030644 0.840829 -0.760247 0.016494 0.493475 0.047545 -1.456092
谁 -0.187395 0.423480 0.460696 -0.049979 0.422300 0.551401 0.056483 0.125729 0.497576 1.040592 -0.348342 -0.645598 -0.364055 0.385555 0.056727 0.580717 0.551201 0.717098 0.842305 0.061576 -0.456038 0.012270 1.328213 0.275920 0.467820 -0.624753 -0.328996 0.151726 -0.288578 -0.850417 -0.303802 -0.111159 0.718391 0.639287 0.229800 0.840920 0.589472 -0.535905 -0.142733 0.394219 -0.297595 -0.188044 -0.950702 -0.015869 -0.206589 0.346236 -0.564716 -0.202882 -0.271419 -0.614752
进入 0.271634 0.190387 -0.060041 0.812242 0.722670 0.330400 -1.470694 0.202047 0.680841 0.215703 0.522709 -0.344363 -0.446716 0.069344 0.309778 0.348471 -0.771935 -0.702351 0.277642 -0.608890 0.644260 -0.787565 -0.476868 -0.016104 -0.041472 -0.042969 0.057082 -0.108897 -0.005991 0.366970 0.150558 -0.863808 -0.172867 -0.188080 0.312952 -0.694264 0.406242 -0.121878 -0.318774 0.652996 0.206827 0.015110 -0.202545 -0.530619 0.488757 0.571902 -0.071286 0.035591 -0.531754 -0.442532
那么 -0.670012 0.762950 0.071588 -0.084498 -0.026288 -0.168796 0.321246 0.128156 -0.011433 0.586044 0.054088 -0.742838 -1.089488 0.386876 -0.226207 -0.343283 -0.120969 0.252654 0.436006 0.098466 -0.299391 0.506438 0.803608 -0.188795 -0.088467 -0.667965 -0.114576 -0.312277 -0.717770 0.272625 -0.548165 0.032778 0.304472 0.471901 -0.495245 0.583123 1.058137 0.159809 0.433371 -0.761062 0.014946 0.092746 -0.200057 0.415462 0.051371 0.419940 -0.239302 -0.985885 0.191182 -0.210589
仍 -0.197163 0.031998 0.528340 -0.128665 0.443679 0.053088 -0.232051 -0.536025 0.157303 0.670730 -1.067932 -0.265743 -0.103315 0.061458 -0.337560 0.173079 -1.150403 -0.795522 0.146748 0.045757 -0.207349 -0.252570 0.112071 0.008368 0.025817 -0.458909 -0.241169 -0.512642 -0.249949 0.287323 0.115181 -0.587781 -0.132076 -0.035127 0.560747 -0.479299 -0.043226 -0.052419 0.107346 -0.468887 0.011998 0.049909 0.424492 -0.457462 0.273835 0.495318 0.023853 -0.373415 -0.307080 0.420984
正在 -0.502121 0.576868 0.178183 -0.137917 0.385394 0.163075 -0.805671 -0.546877 0.222033 0.468645 0.022907 -0.516600 -0.474658 -0.123112 0.061289 -0.326369 -0.104586 -0.014279 -0.386788 0.585751 0.055740 -0.301097 -0.567863 -0.096596 -0.664496 -0.025817 -0.531130 -0.389748 -0.971371 -0.191437 -0.533507 -0.621727 -0.468009 0.117917 -0.287534 -0.372249 -0.090205 -0.040629 0.213725 0.239617 0.223798 -0.338263 0.697131 -0.694254 0.032163 0.322153 -0.268043 0.336412 -0.695160 0.146160
看看 -0.474403 -0.352153 0.060581 -0.038361 0.872891 -1.083636 -0.677932 0.726304 0.189854 0.299558 0.131849 -0.723187 -0.534285 1.005572 0.300550 0.638657 -0.368810 -0.854863 -0.008842 0.497525 0.354834 -0.114367 -0.518897 0.442665 0.008578 -0.414005 -0.006005 0.121634 -0.878739 0.180289 -0.989944 0.196025 -0.389908 0.543361 -0.063445 0.585492 0.005820 0.012462 -0.026834 -0.091946 -0.873932 -0.279501 0.509197 -0.452818 -0.216504 0.681782 -0.149760 0.081126 -1.276815 0.106367
这是 -0.332295 0.317973 0.825989 0.246354 -0.347559 -0.043920 0.092925 -0.620666 0.548717 0.295845 0.168422 -0.590605 -0.398750 0.102478 0.125605 0.179469 0.005517 0.789922 -0.013709 0.324264 0.054184 -0.031817 0.140767 -0.094117 -0.379971 -0.625794 -0.845591 0.325676 -0.089753 -0.014555 0.182868 -0.247750 0.698320 0.018469 -0.442888 -0.406053 0.358805 0.806349 0.156487 -0.200722 0.305421 -0.060161 -0.107462 -0.698750 0.447316 0.113985 -0.162782 -0.018278 -0.063079 -0.321524
回答 -0.998440 0.033162 0.213164 -0.303610 0.220068 -0.506426 0.011102 0.497726 -0.445357 1.231173 -0.454061 0.346030 -1.174805 -0.050466 0.518029 -0.801068 -1.194298 -0.645242 0.656653 -0.536045 -0.592138 0.208178 0.659922 -0.132363 -0.538468 -0.328895 -0.251554 0.943315 -0.587137 -1.383719 -1.020759 -0.233077 -1.305990 0.352500 0.347756 -0.067061 0.323050 -0.048294 0.593445 -0.275050 0.267946 -0.041970 -0.530432 -0.066085 0.522563 0.360558 0.154016 -0.860587 0.440024 -0.622127
任何 -0.233844 -0.057507 -0.522427 0.158081 0.356945 0.006074 0.704715 0.627428 -0.281327 0.258753 -0.430034 -0.399044 -0.261100 -0.573531 0.144961 0.414481 0.242389 0.112447 0.312153 0.221544 0.407120 -0.306007 0.368068 -0.886815 0.182246 -0.269502 -0.678423 -0.094043 -0.186978 -0.436122 0.434645 0.243595 0.618807 0.394853 0.526196 0.475317 1.213164 -0.740986 -0.177211 -0.841159 -0.090963 -0.309688 -0.369092 -0.945078 0.688215 0.964852 -0.344639 -0.525255 1.048484 -0.388973
点点头 -0.585893 -0.360636 0.244680 -0.515912 0.104413 -0.765028 0.270095 -0.016538 0.252050 1.086479 0.214079 -0.091100 -0.682228 1.515154 0.605789 0.596473 -0.703248 -0.518472 0.339595 -0.103990 -0.634140 0.446799 -0.137433 0.431904 -0.199587 -0.672205 -0.019398 0.197476 -0.863582 -0.029761 -0.617671 0.329811 -0.626944 -0.186472 1.045991 -0.004509 0.412894 0.329961 0.400416 -0.100147 -0.017231 0.029905 -0.300376 0.265326 0.133191 -0.634628 -0.239034 -0.277864 -0.594372 -0.620104
不能 -0.555902 0.144507 -0.135642 -0.068236 0.159572 0.394799 -0.039340 0.437231 0.543079 0.589433 0.393158 0.141204 -0.162621 -0.726444 0.287537 0.192781 0.366352 0.231101 0.119171 -0.244003 -0.052320 0.145443 0.108062 0.148274 -0.153455 -0.530541 -0.132597 0.106058 -0.824657 -0.636915 -0.547984 0.539049 0.361670 -0.004581 0.342155 0.357368 -0.144057 -0.181310 0.466308 -0.667372 -0.072921 0.379418 -0.324321 -0.982961 -0.049233 0.069014 -0.420664 -0.633189 -0.991819 -0.779540
以前 -0.441779 -0.154177 0.050125 0.453260 0.558816 -0.330023 0.436690 -0.165293 0.376671 0.255743 0.006614 0.093354 -0.589022 0.108404 0.112768 0.214959 0.187042 -0.108117 0.307535 0.135063 0.121654 -0.332713 0.308745 -0.101195 0.705363 -1.164589 -0.371466 -0.022927 -0.435149 0.153143 0.204557 0.196424 0.140579 -0.157831 0.085006 0.019439 0.244006 -0.407193 0.001467 -0.700070 -0.074251 0.167525 0.083397 -0.470719 -0.010872 0.796581 -0.538215 0.214303 -0.546596 -0.147590
甚至 0.038715 0.406390 -0.155761 0.281181 0.974338 0.478672 -0.089370 -0.440174 0.746262 0.520401 -0.801658 0.417821 -0.355290 -0.473480 -0.123913 -0.227441 0.341915 -0.511966 0.402936 0.157804 -0.636984 -0.634746 0.722493 -0.280545 0.369275 -0.712302 -0.062130 -0.426153 0.487579 0.001331 -0.151704 0.258793 0.539088 0.453357 0.297485 -0.272998 -0.025128 -0.666707 0.799286 -1.035653 -0.153139 0.162459 -0.038725 -0.595939 0.597640 0.478430 -0.864929 0.010378 -0.727288 -0.347869
不会 0.189054 -0.116505 -0.277109 0.240030 0.641729 0.271408 -0.004980 0.198749 0.155494 0.756872 -0.201076 -0.074321 -0.646200 -0.163734 0.152404 0.671577 0.354329 0.267667 0.963879 -0.514397 -0.806446 -0.731732 0.118277 -0.283391 0.529311 -0.532354 -0.579097 -0.218160 -0.567892 -0.437756 -0.183241 -0.426709 0.382856 0.228591 0.055165 0.076775 0.746495 -0.106173 0.268862 -0.523987 -0.555769 0.329308 -0.945963 -0.199021 0.090588 0.281858 -0.117456 -0.469320 -0.009337 -0.268425
其他 0.295643 0.201651 0.630818 0.507058 -0.205880 -0.256333 -0.292003 0.117302 0.067742 -0.205969 -0.551327 -0.265147 -0.012643 -0.208138 -0.072974 0.290226 0.378930 -0.182552 -0.114789 0.639621 0.422699 -0.276021 1.087206 -0.711840 0.394332 -0.841293 -0.190993 0.469599 -0.148436 0.649287 0.757903 0.007079 0.580586 0.078195 0.125094 -0.221621 0.585981 0.024021 0.065666 -1.308182 -0.454105 -0.392025 0.373180 -0.262236 0.991595 0.915132 -0.388479 -0.161043 0.418785 -0.571401
发出 -0.634358 0.373930 0.403295 -0.089635 -0.148752 -0.076540 -0.425520 -0.020750 -0.873621 0.180510 -0.626371 -0.194896 -0.318471 -0.266471 0.225503 -0.623186 -1.339248 -0.207113 -0.127878 -0.345292 -0.031461 -0.257496 -0.424085 -0.228050 -0.552784 -0.364200 -0.428851 0.340396 -0.626527 -0.756781 -0.396679 -0.599497 -0.971720 0.667219 0.270547 -0.342513 0.256826 -0.163038 0.206281 -0.082129 0.603711 0.124535 0.364687 -0.207551 0.275156 0.345389 0.515724 0.153059 -0.116948 -0.552542
不过 -0.002929 0.187077 -0.271501 0.117984 0.340762 -0.199580 0.279830 0.044503 -0.079695 0.328102 0.188873 -0.122104 -0.316563 0.442648 -0.049538 0.646861 0.393499 0.469608 0.600274 0.132898 -0.457162 -0.035850 0.364479 0.263710 0.080081 -0.731005 -0.570911 0.071170 -0.810853 0.087025 -0.362011 0.778293 0.018871 0.042823 0.298324 0.062506 0.691613 0.085290 0.361819 -0.633744 0.243195 0.254513 -0.254081 0.210283 -0.234516 0.210058 -0.360908 -0.058406 -0.086813 -0.310250
因为 -0.336567 0.448067 -0.392763 0.334695 0.316359 -0.075868 -0.206704 0.225240 0.037145 0.026321 -0.061051 0.463026 -0.541330 -0.462025 0.063804 0.327930 0.141057 -0.208046 0.245205 0.050010 -0.141146 -0.524902 0.374977 0.062461 0.376025 -0.585439 -0.527056 0.358640 -0.467201 -0.059621 -0.327642 0.058990 0.210944 0.264178 0.420507 0.049126 0.908482 -0.061221 0.286569 -0.125553 0.118994 0.083662 -0.113768 -0.239096 0.216865 0.467749 0.022521 0.116079 0.020026 -0.392619
